{"learner":{"attributes":{"scikit_learn":"{\"_estimator_type\": \"classifier\"}"},"feature_names":["Destination Port","Flow Duration","Total Fwd Packets","Total Backward Packets","Total Length of Fwd Packets","Total Length of Bwd Packets","Fwd Packet Length Max","Fwd Packet Length Min","Fwd Packet Length Mean","Fwd Packet Length Std","Bwd Packet Length Max","Bwd Packet Length Min","Bwd Packet Length Mean","Bwd Packet Length Std","Flow Bytes/s","Flow Packets/s","Flow IAT Mean","Flow IAT Std","Flow IAT Max","Flow IAT Min","Fwd IAT Total","Fwd IAT Mean","Fwd IAT Std","Fwd IAT Max","Fwd IAT Min","Bwd IAT Total","Bwd IAT Mean","Bwd IAT Std","Bwd IAT Max","Bwd IAT Min","Fwd PSH Flags","Bwd PSH Flags","Fwd URG Flags","Bwd URG Flags","Fwd Header Length","Bwd Header Length","Fwd Packets/s","Bwd Packets/s","Min Packet Length","Max Packet Length","Packet Length Mean","Packet Length Std","Packet Length Variance","FIN Flag Count","SYN Flag Count","RST Flag Count","PSH Flag Count","ACK Flag Count","URG Flag Count","CWE Flag Count","ECE Flag Count","Down/Up Ratio","Average Packet Size","Avg Fwd Segment Size","Avg Bwd Segment Size","Fwd Header Length.1","Fwd Avg Bytes/Bulk","Fwd Avg Packets/Bulk","Fwd Avg Bulk Rate","Bwd Avg Bytes/Bulk","Bwd Avg Packets/Bulk","Bwd Avg Bulk Rate","Subflow Fwd Packets","Subflow Fwd Bytes","Subflow Bwd Packets","Subflow Bwd Bytes","Init_Win_bytes_forward","Init_Win_bytes_backward","act_data_pkt_fwd","min_seg_size_forward","Active Mean","Active Std","Active Max","Active Min","Idle Mean","Idle Std","Idle Max","Idle Min"],"feature_types":["float","float","int","float","int","int","float","int","float","float","float","float","float","float","float","float","float","float","float","float","float","float","float","float","float","float","float","float","float","float","float","float","float","float","float","float","float","float","int","int","float","float","float","float","float","float","float","float","float","float","float","float","float","float","float","float","float","float","float","float","float","float","float","float","float","float","float","float","float","float","float","float","float","float","float","float","float","float"],"gradient_booster":{"model":{"gbtree_model_param":{"num_parallel_tree":"1","num_trees":"100"},"iteration_indptr":[0,1,2,3,4,5,6,7,8,9,10,11,12,13,14,15,16,17,18,19,20,21,22,23,24,25,26,27,28,29,30,31,32,33,34,35,36,37,38,39,40,41,42,43,44,45,46,47,48,49,50,51,52,53,54,55,56,57,58,59,60,61,62,63,64,65,66,67,68,69,70,71,72,73,74,75,76,77,78,79,80,81,82,83,84,85,86,87,88,89,90,91,92,93,94,95,96,97,98,99,100],"tree_info":[0,0,0,0,0,0,0,0,0,0,0,0,0,0,0,0,0,0,0,0,0,0,0,0,0,0,0,0,0,0,0,0,0,0,0,0,0,0,0,0,0,0,0,0,0,0,0,0,0,0,0,0,0,0,0,0,0,0,0,0,0,0,0,0,0,0,0,0,0,0,0,0,0,0,0,0,0,0,0,0,0,0,0,0,0,0,0,0,0,0,0,0,0,0,0,0,0,0,0,0],"trees":[{"base_weights":[-1.8340416E-1,-6.085936E-1,4.297279E0,1.0500412E0,-1.2358301E0,4.3580937E0,-1.2682364E0,2.3725588E0,-9.498936E-1,2.5834537E0,-1.2594198E0,4.360946E0,-1.0019684E0,2.7858958E-1,-1.2919093E0,6.0861987E-1,4.100117E0,-1.0992715E0,1.2824814E0,-7.349963E-1,3.8784893E0,-1.2650703E0,1.5036995E0,-1.1838082E-1,4.3624773E0,-1.2291678E-1,6.1278933E-1,-1.8217077E-2,-1.294281E-1,2.9055092E0,-1.2973054E-1,4.2602024E0,-1.261875E0,1.2219476E0,-1.169068E0,4.3476896E0,-1.2965275E-1,2.3852797E0,-1.2649107E0,4.322847E0,-1.2850273E-1,2.791386E-1,-1.2739129E0,-1.2606403E0,4.348123E-1,4.3625554E-1,1.0709895E-1,1.759532E-1,-7.173415E-2,-1.294382E-1,3.578605E-1,-1.2144349E-1,4.296608E-1,-1.2779121E-1,3.222694E-1,-1.13439456E-1,4.2889887E-1,-1.1997098E-1,4.2694232E-1,-7.598035E-2,4.3539008E-1,-1.24830954E-1,4.2747623E-1,3.0394068E-1,-1.2944147E-1,-1.1495048E-1,4.3591243E-1,-1.2864502E-1,4.3534166E-1,4.3099442E-1,-1.275479E-1,2.582059E-3,-1.2734132E-1],"categories":[],"categories_nodes":[],"categories_segments":[],"categories_sizes":[],"default_left":[0,0,0,0,0,0,0,0,0,0,0,0,0,0,0,0,0,0,0,0,0,0,0,0,0,0,0,0,0,0,0,0,0,0,0,0,0,0,0,0,0,0,0,0,0,0,0,0,0,0,0,0,0,0,0,0,0,0,0,0,0,0,0,0,0,0,0,0,0,0,0,0,0],"id":0,"left_children":[1,3,5,7,9,11,13,15,17,19,21,23,25,-1,27,29,31,33,35,37,39,41,43,-1,45,-1,47,-1,-1,49,-1,51,53,55,57,59,-1,61,63,65,-1,67,69,71,-1,-1,-1,-1,-1,-1,-1,-1,-1,-1,-1,-1,-1,-1,-1,-1,-1,-1,-1,-1,-1,-1,-1,-1,-1,-1,-1,-1,-1],"loss_changes":[8.56655E5,4.2725797E5,1.3196E4,2.9806362E5,2.6851281E4,5.9375E2,4.4101257E1,2.067085E5,1.4960031E4,7.8655E3,4.6259688E3,3.3225E2,8.574045E0,0E0,8.703613E-1,1.469402E5,2.9422125E4,6.81325E3,2.2249576E4,8.535941E2,3.0254297E3,4.0361875E3,4.761577E3,0E0,5.25E0,0E0,6.2908072E0,0E0,0E0,4.3034766E4,0E0,6.6375625E3,7.562463E1,8.878381E3,6.8072656E3,4.4101562E1,0E0,5.204395E2,5.9861023E1,2.4564062E2,0E0,1.0744998E4,2.5752188E3,5.0860596E0,0E0,0E0,0E0,0E0,0E0,0E0,0E0,0E0,0E0,0E0,0E0,0E0,0E0,0E0,0E0,0E0,0E0,0E0,0E0,0E0,0E0,0E0,0E0,0E0,0E0,0E0,0E0,0E0,0E0],"parents":[2147483647,0,0,1,1,2,2,3,3,4,4,5,5,6,6,7,7,8,8,9,9,10,10,11,11,12,12,14,14,15,15,16,16,17,17,18,18,19,19,20,20,21,21,22,22,24,24,26,26,29,29,31,31,32,32,33,33,34,34,35,35,37,37,38,38,39,39,41,41,42,42,43,43],"right_children":[2,4,6,8,10,12,14,16,18,20,22,24,26,-1,28,30,32,34,36,38,40,42,44,-1,46,-1,48,-1,-1,50,-1,52,54,56,58,60,-1,62,64,66,-1,68,70,72,-1,-1,-1,-1,-1,-1,-1,-1,-1,-1,-1,-1,-1,-1,-1,-1,-1,-1,-1,-1,-1,-1,-1,-1,-1,-1,-1,-1,-1],"split_conditions":[1.4957224E3,8E0,1.23E2,2.4E1,2.2E1,2.45E2,1E0,6E0,1E0,3E0,4.3141715E6,2.27E2,1.4E2,2.7858958E-1,4E0,1.23E2,3.4641016E0,2.4E1,1.23E2,2.1531365E0,1E1,2.4E1,1.64E7,-1.1838082E-1,3.04E2,-1.2291678E-1,8.01E2,-1.8217077E-2,-1.294281E-1,3.1E1,-1.2973054E-1,2.51E2,8.104819E7,2.47E2,4.68E7,1.75E2,-1.2965275E-1,1.1E1,6E0,2.4E1,-1.2850273E-1,4.69E2,6E0,6E0,4.348123E-1,4.3625554E-1,1.0709895E-1,1.759532E-1,-7.173415E-2,-1.294382E-1,3.578605E-1,-1.2144349E-1,4.296608E-1,-1.2779121E-1,3.222694E-1,-1.13439456E-1,4.2889887E-1,-1.1997098E-1,4.2694232E-1,-7.598035E-2,4.3539008E-1,-1.24830954E-1,4.2747623E-1,3.0394068E-1,-1.2944147E-1,-1.1495048E-1,4.3591243E-1,-1.2864502E-1,4.3534166E-1,4.3099442E-1,-1.275479E-1,2.582059E-3,-1.2734132E-1],"split_indices":[13,52,0,35,0,67,46,39,43,24,71,67,8,0,8,0,9,0,0,37,2,0,26,0,35,0,6,0,0,69,0,66,1,67,23,67,0,6,5,69,0,6,40,3,0,0,0,0,0,0,0,0,0,0,0,0,0,0,0,0,0,0,0,0,0,0,0,0,0,0,0,0,0],"split_type":[0,0,0,0,0,0,0,0,0,0,0,0,0,0,0,0,0,0,0,0,0,0,0,0,0,0,0,0,0,0,0,0,0,0,0,0,0,0,0,0,0,0,0,0,0,0,0,0,0,0,0,0,0,0,0,0,0,0,0,0,0,0,0,0,0,0,0,0,0,0,0,0,0],"sum_hessian":[4.4965247E5,4.106821E5,3.897036E4,1.1268979E5,2.979923E5,3.8549344E4,4.2101562E2,6.7832984E4,4.48568E4,1.8285823E3,2.9616372E5,3.8529023E4,2.0317581E1,1.7667462E0,4.1924887E2,3.356376E4,3.4269223E4,4.2043965E4,2.8128367E3,5.1341644E2,1.3151659E3,2.9555984E5,6.0387384E2,1.0423802E1,3.85186E4,1.8020811E1,2.29677E0,1.0600477E0,4.181888E2,1.5220519E4,1.8343242E4,3.3275957E4,9.932647E2,1.2268286E3,4.0817137E4,1.2849545E3,1.5278821E3,7.4026665E1,4.3938977E2,1.2111045E3,1.0406135E2,1.682649E3,2.9387722E5,3.0653046E2,2.9734338E2,3.8517363E4,1.2367224E0,1.0600477E0,1.2367224E0,2.1022512E3,1.3118268E4,2.1960655E2,3.305635E4,9.904379E2,2.826794E0,6.941546E2,5.3267395E2,4.0589227E4,2.2791026E2,1.413397E0,1.2835411E3,2.5441145E1,4.858552E1,2.29677E0,4.3709302E2,7.773683E0,1.2033308E3,1.2160514E3,4.6659766E2,8.162367E1,2.937956E5,3.0034685E0,3.03527E2],"tree_param":{"num_deleted":"0","num_feature":"78","num_nodes":"73","size_leaf_vector":"1"}},{"base_weights":[-1.801281E-1,-5.770967E-1,3.134703E0,8.786699E-1,-1.1976E0,3.1710625E0,-1.2308218E0,1.8787836E0,-9.084339E-1,1.2169572E0,-1.2307738E0,3.1727645E0,-9.5846474E-1,2.3732053E-1,-1.2555703E0,5.166161E-1,3.0152473E0,-1.057539E0,1.0627732E0,-1.0200791E0,2.4449959E0,-1.2366273E0,1.236111E0,-1.1466093E-1,3.1736841E0,-1.1920917E-1,5.7105494E-1,-1.7372578E-2,-1.2580378E-1,2.248577E0,-1.2611209E-1,3.1121304E0,-1.224149E0,1.0164164E0,-1.1281201E0,3.1654122E0,-1.2603275E-1,2.00771E0,-1.2494298E0,-1.2576501E-1,3.0081112E0,-1.2403358E0,1.2622739E0,-1.2228948E0,3.1682673E-1,7.7058375E-2,3.17372E0,1.6265701E-1,-7.063726E-2,-1.2580691E-1,2.6894698E-1,3.133628E-1,-1.4407744E-1,-1.24082446E-1,2.637392E-1,-1.0918554E-1,3.1311414E-1,-1.1592754E-1,3.121665E-1,-7.339669E-2,3.1692493E-1,-1.2123741E-1,3.1347182E-1,2.629104E-1,-1.2603927E-1,3.16019E-1,-1.2443476E-1,3.1536302E-1,-1.2419488E-1,4.7917232E-1,-1.2564552E-1,2.385707E-3,-1.2362055E-1,3.1737623E-1,1.11306526E-1],"categories":[],"categories_nodes":[],"categories_segments":[],"categories_sizes":[],"default_left":[0,0,0,0,0,0,0,0,0,0,0,0,0,0,0,0,0,0,0,0,0,0,0,0,0,0,0,0,0,0,0,0,0,0,0,0,0,0,0,0,0,0,0,0,0,0,0,0,0,0,0,0,0,0,0,0,0,0,0,0,0,0,0,0,0,0,0,0,0,0,0,0,0,0,0],"id":1,"left_children":[1,3,5,7,9,11,13,15,17,19,21,23,25,-1,27,29,31,33,35,37,39,41,43,-1,45,-1,47,-1,-1,49,-1,51,53,55,57,59,-1,61,63,-1,65,67,69,71,-1,-1,73,-1,-1,-1,-1,-1,-1,-1,-1,-1,-1,-1,-1,-1,-1,-1,-1,-1,-1,-1,-1,-1,-1,-1,-1,-1,-1,-1,-1],"loss_changes":[5.8407994E5,3.5807034E5,7.538875E3,2.1173678E5,2.2263938E4,3.3390625E2,3.801764E1,1.1758575E5,1.2495184E4,1.0351879E4,3.9605E3,1.9059375E2,7.886202E0,0E0,8.24646E-1,1.0638006E5,1.7011781E4,5.7861562E3,1.4608156E4,9.3015796E2,5.075464E3,2.53625E3,3.0898503E3,0E0,1.5625E0,0E0,5.663223E0,0E0,0E0,2.706004E4,0E0,3.9670312E3,6.2894897E1,5.8047495E3,5.0640586E3,2.58125E1,0E0,3.4655527E2,5.614026E1,0E0,1.369543E3,1.9396562E3,3.6134946E3,4.7842407E0,0E0,0E0,6.5625E-1,0E0,0E0,0E0,0E0,0E0,0E0,0E0,0E0,0E0,0E0,0E0,0E0,0E0,0E0,0E0,0E0,0E0,0E0,0E0,0E0,0E0,0E0,0E0,0E0,0E0,0E0,0E0,0E0],"parents":[2147483647,0,0,1,1,2,2,3,3,4,4,5,5,6,6,7,7,8,8,9,9,10,10,11,11,12,12,14,14,15,15,16,16,17,17,18,18,19,19,20,20,21,21,22,22,24,24,26,26,29,29,31,31,32,32,33,33,34,34,35,35,37,37,38,38,40,40,41,41,42,42,43,43,46,46],"right_children":[2,4,6,8,10,12,14,16,18,20,22,24,26,-1,28,30,32,34,36,38,40,42,44,-1,46,-1,48,-1,-1,50,-1,52,54,56,58,60,-1,62,64,-1,66,68,70,72,-1,-1,74,-1,-1,-1,-1,-1,-1,-1,-1,-1,-1,-1,-1,-1,-1,-1,-1,-1,-1,-1,-1,-1,-1,-1,-1,-1,-1,-1,-1],"split_conditions":[1.4957224E3,8E0,1.23E2,2.4E1,2.4E1,2.45E2,1E0,6E0,1E0,3E0,4.3141715E6,2.27E2,1.4E2,2.3732053E-1,4E0,1.23E2,3.4641016E0,2.4E1,1.23E2,3.4083192E0,2.4E1,5E7,1.64E7,-1.1466093E-1,5.3019915E0,-1.1920917E-1,2.7536127E2,-1.7372578E-2,-1.2580378E-1,3.1E1,-1.2611209E-1,5.445E3,8.104819E7,2.47E2,4.68E7,1.75E2,-1.2603275E-1,2.4E1,2.35E2,-1.2576501E-1,2.8E1,6E0,6E0,6E0,3.1682673E-1,7.7058375E-2,2.43E2,1.6265701E-1,-7.063726E-2,-1.2580691E-1,2.6894698E-1,3.133628E-1,-1.4407744E-1,-1.24082446E-1,2.637392E-1,-1.0918554E-1,3.1311414E-1,-1.1592754E-1,3.121665E-1,-7.339669E-2,3.1692493E-1,-1.2123741E-1,3.1347182E-1,2.629104E-1,-1.2603927E-1,3.16019E-1,-1.2443476E-1,3.1536302E-1,-1.2419488E-1,4.7917232E-1,-1.2564552E-1,2.385707E-3,-1.2362055E-1,3.1737623E-1,1.11306526E-1],"split_indices":[13,52,0,35,0,67,46,39,43,24,71,67,8,0,8,0,9,0,0,37,69,27,26,0,9,0,9,0,0,69,0,19,1,67,23,67,0,69,66,0,2,40,5,3,0,0,67,0,0,0,0,0,0,0,0,0,0,0,0,0,0,0,0,0,0,0,0,0,0,0,0,0,0,0,0],"split_type":[0,0,0,0,0,0,0,0,0,0,0,0,0,0,0,0,0,0,0,0,0,0,0,0,0,0,0,0,0,0,0,0,0,0,0,0,0,0,0,0,0,0,0,0,0,0,0,0,0,0,0,0,0,0,0,0,0,0,0,0,0,0,0,0,0,0,0,0,0,0,0,0,0,0,0],"sum_hessian":[4.438666E5,3.9639678E5,4.7469793E4,1.1846497E5,2.779318E5,4.7077965E4,3.9182922E2,7.595716E4,4.2507812E4,3.7662932E3,2.7416553E5,4.70588E4,1.9164307E1,2.0251079E0,3.898041E2,3.4548598E4,4.140856E4,3.9519E4,2.9888127E3,1.3348518E3,2.4314414E3,2.73517E5,6.485173E2,9.752828E0,4.7049047E4,1.6816305E1,2.348001E0,1.0495795E0,3.8875455E2,1.7499467E4,1.7049129E4,4.048365E4,9.2490967E2,1.3002091E3,3.8218793E4,1.5686578E3,1.420155E3,9.344726E1,1.2414045E3,3.2080734E2,2.110634E3,2.7311222E5,4.0480258E2,2.8551575E2,3.6300153E2,1.0210849E0,4.7048027E4,1.1360153E0,1.2119858E0,1.9542723E3,1.5545195E4,4.0293703E4,1.8994331E2,9.216085E2,3.3011642E0,6.513402E2,6.488689E2,3.794137E4,2.7742273E2,1.3550539E0,1.5673027E3,2.420709E1,6.924017E1,2.825857E0,1.2385787E3,2.0380067E3,7.262745E1,9.9506325E1,2.730127E5,1.6820189E2,2.366007E2,3.007668E0,2.825081E2,4.7046516E4,1.5106171E0],"tree_param":{"num_deleted":"0","num_feature":"78","num_nodes":"75","size_leaf_vector":"1"}},{"base_weights":[-1.7471258E-1,-5.5062157E-1,2.5542743E0,7.7042633E-1,-1.1647077E0,2.580653E0,-1.1986247E0,1.5928729E0,-8.725894E-1,1.0590413E0,-1.1984007E0,2.581891E0,-9.1915655E-1,2.0732832E-1,-1.2243937E0,4.5478055E-1,2.4625552E0,-1.0206294E0,9.295151E-1,-9.8624575E-1,2.0397007E0,-1.2043564E0,1.0753138E0,-1.1132713E-1,2.5825627E0,5.3363293E-1,-1.1627703E-1,-1.2271173E-1,-1.660656E-2,1.8653301E0,-1.2301695E-1,2.5330813E0,-1.1914575E0,8.889289E-1,-1.0914694E0,2.576331E0,-1.2293494E-1,1.7018092E0,-1.2179955E0,-1.2265328E-1,2.4607015E0,-1.2081872E0,1.0351585E0,-1.1899407E0,2.5793853E-1,2.5826463E-1,-7.5858325E-2,-7.1538E-2,1.7305964E-1,-1.2269465E-1,2.1936858E-1,-1.2828207E-1,2.5539023E-1,-1.2203752E-1,1.0940536E-1,-1.05274096E-1,2.5485596E-1,-1.13332465E-1,1.852253E-1,-8.600599E-2,2.5793678E-1,-1.1800414E-1,2.5574225E-1,2.249846E-1,-1.22938275E-1,2.5716108E-1,-1.2128798E-1,2.5707552E-1,-1.2098304E-1,3.350159E-1,-1.2252704E-1,2.2044047E-3,-1.2038944E-1],"categories":[],"categories_nodes":[],"categories_segments":[],"categories_sizes":[],"default_left":[0,0,0,0,0,0,0,0,0,0,0,0,0,0,0,0,0,0,0,0,0,0,0,0,0,0,0,0,0,0,0,0,0,0,0,0,0,0,0,0,0,0,0,0,0,0,0,0,0,0,0,0,0,0,0,0,0,0,0,0,0,0,0,0,0,0,0,0,0,0,0,0,0],"id":2,"left_children":[1,3,5,7,9,11,13,15,17,19,21,23,25,-1,27,29,31,33,35,37,39,41,43,-1,45,47,-1,-1,-1,49,-1,51,53,55,57,59,-1,61,63,-1,65,67,69,71,-1,-1,-1,-1,-1,-1,-1,-1,-1,-1,-1,-1,-1,-1,-1,-1,-1,-1,-1,-1,-1,-1,-1,-1,-1,-1,-1,-1,-1],"loss_changes":[4.4164022E5,3.0696412E5,5.1629688E3,1.622602E5,1.9355344E4,2.2665625E2,3.3269592E1,7.9201984E4,1.0687416E4,7.7359717E3,3.4470938E3,1.313125E2,7.3587513E0,0E0,8.4039307E-1,8.238586E4,1.169225E4,5.008293E3,1.0815828E4,7.809662E2,3.587338E3,2.1785625E3,2.269883E3,0E0,1.6375E1,6.350328E0,0E0,0E0,0E0,1.9160836E4,0E0,3.5388438E3,5.814624E1,4.2713047E3,4.3998047E3,2.0225586E1,0E0,2.4874695E2,4.824402E1,0E0,9.4401855E2,1.5763438E3,2.2747168E3,4.5278625E0,0E0,0E0,0E0,0E0,0E0,0E0,0E0,0E0,0E0,0E0,0E0,0E0,0E0,0E0,0E0,0E0,0E0,0E0,0E0,0E0,0E0,0E0,0E0,0E0,0E0,0E0,0E0,0E0,0E0],"parents":[2147483647,0,0,1,1,2,2,3,3,4,4,5,5,6,6,7,7,8,8,9,9,10,10,11,11,12,12,14,14,15,15,16,16,17,17,18,18,19,19,20,20,21,21,22,22,24,24,25,25,29,29,31,31,32,32,33,33,34,34,35,35,37,37,38,38,40,40,41,41,42,42,43,43],"right_children":[2,4,6,8,10,12,14,16,18,20,22,24,26,-1,28,30,32,34,36,38,40,42,44,-1,46,48,-1,-1,-1,50,-1,52,54,56,58,60,-1,62,64,-1,66,68,70,72,-1,-1,-1,-1,-1,-1,-1,-1,-1,-1,-1,-1,-1,-1,-1,-1,-1,-1,-1,-1,-1,-1,-1,-1,-1,-1,-1,-1,-1],"split_conditions":[1.4957224E3,8E0,1.23E2,2.4E1,2.4E1,2.45E2,1E0,6E0,1E0,3E0,4.3141715E6,2.27E2,3.4E2,2.0732832E-1,2.3826155E3,1.23E2,3.4641016E0,2.4E1,1.23E2,3.4083192E0,2.4E1,5E7,1.64E7,-1.1132713E-1,3.1088E4,1.4E2,-1.1627703E-1,-1.2271173E-1,-1.660656E-2,3.1E1,-1.2301695E-1,2.51E2,9.2750194E5,2.47E2,6.0478115E6,2E0,-1.2293494E-1,2.4E1,2.35E2,-1.2265328E-1,2.8E1,6E0,6E0,6E0,2.5793853E-1,2.5826463E-1,-7.5858325E-2,-7.1538E-2,1.7305964E-1,-1.2269465E-1,2.1936858E-1,-1.2828207E-1,2.5539023E-1,-1.2203752E-1,1.0940536E-1,-1.05274096E-1,2.5485596E-1,-1.13332465E-1,1.852253E-1,-8.600599E-2,2.5793678E-1,-1.1800414E-1,2.5574225E-1,2.249846E-1,-1.22938275E-1,2.5716108E-1,-1.2128798E-1,2.5707552E-1,-1.2098304E-1,3.350159E-1,-1.2252704E-1,2.2044047E-3,-1.2038944E-1],"split_indices":[13,52,0,35,0,67,46,39,43,24,71,67,67,0,41,0,9,0,0,37,69,27,26,0,66,8,0,0,0,69,0,66,22,67,16,4,0,69,66,0,2,40,5,3,0,0,0,0,0,0,0,0,0,0,0,0,0,0,0,0,0,0,0,0,0,0,0,0,0,0,0,0,0],"split_type":[0,0,0,0,0,0,0,0,0,0,0,0,0,0,0,0,0,0,0,0,0,0,0,0,0,0,0,0,0,0,0,0,0,0,0,0,0,0,0,0,0,0,0,0,0,0,0,0,0,0,0,0,0,0,0,0,0,0,0,0,0,0,0,0,0,0,0,0,0,0,0,0,0],"sum_hessian":[4.3050888E5,3.7838797E5,5.21209E4,1.2007574E5,2.5831223E5,5.1757414E4,3.6348422E2,8.002004E4,4.0055703E4,3.8549324E3,2.544573E5,5.1739375E4,1.8038961E1,2.219476E0,3.6126474E2,3.466192E4,4.5358113E4,3.7015383E4,3.0403206E3,1.2493184E3,2.605614E3,2.5379298E5,6.6431964E2,9.103809E0,5.1730273E4,2.4195426E0,1.5619419E1,3.6017834E2,1.0863817E0,1.8867207E4,1.5794717E4,4.4499535E4,8.5858105E2,1.3236489E3,3.5691734E4,1.7245858E3,1.3157346E3,9.865698E1,1.1506614E3,2.9728506E2,2.308329E3,2.5336006E5,4.3291132E2,2.6516635E2,3.991533E2,5.1729207E4,1.0643945E0,1.3809159E0,1.0386267E0,1.810851E3,1.7056355E4,2.4115584E2,4.425838E4,8.483137E2,1.0267346E1,6.101616E2,7.134873E2,3.5191973E4,4.9976062E2,1.273458E0,1.7233124E3,2.2498621E1,7.615836E1,3.1226585E0,1.1475387E3,2.2409717E3,6.735732E1,1.0943974E2,2.5325062E5,2.136358E2,2.1927551E2,3.0115473E0,2.6215482E2],"tree_param":{"num_deleted":"0","num_feature":"78","num_nodes":"73","size_leaf_vector":"1"}},{"base_weights":[-1.6919413E-1,-5.2821386E-1,2.1998E0,6.938998E-1,-1.1361197E0,2.2208157E0,-1.1706766E0,1.4024223E0,-8.4089106E-1,9.513796E-1,-1.170153E0,2.2217383E0,-1.13310635E-1,1.8474084E-1,-1.1974247E0,4.0913174E-1,2.1218247E0,-9.8723614E-1,8.380565E-1,-9.575937E-1,1.7819042E0,-1.1765764E0,8.425056E-1,-1.0830523E-1,2.2222779E0,-1.3210276E-2,-1.2003356E-1,1.6081154E0,-1.2035135E-1,2.178078E0,-1.1626792E0,7.998502E-1,-1.0579327E0,2.2167945E0,-1.2026554E-1,1.500832E0,-1.1908791E0,-1.1996671E-1,2.1234477E0,-1.1804956E0,9.016587E-1,-1.1709142E0,2.3339E0,2.2223668E0,-7.920976E-2,-1.4313528E-1,1.8516849E-1,2.1937338E-1,-1.4937386E-1,5.331815E-2,-1.2034257E-1,-1.01628505E-1,2.1910463E-1,-1.099836E-1,1.6039006E-1,-7.71313E-2,2.2195987E-1,-1.1514187E-1,2.2020505E-1,1.979192E-1,-1.2026604E-1,2.212077E-1,-1.1854871E-1,2.213471E-1,-1.1821605E-1,2.6811233E-1,-1.1983233E-1,-3.805254E-2,-1.1884021E-1,2.2200428E-1,5.4733676E-1,2.2224195E-1,-1.9161202E-2],"categories":[],"categories_nodes":[],"categories_segments":[],"categories_sizes":[],"default_left":[0,0,0,0,0,0,0,0,0,0,0,0,0,0,0,0,0,0,0,0,0,0,0,0,0,0,0,0,0,0,0,0,0,0,0,0,0,0,0,0,0,0,0,0,0,0,0,0,0,0,0,0,0,0,0,0,0,0,0,0,0,0,0,0,0,0,0,0,0,0,0,0,0],"id":3,"left_children":[1,3,5,7,9,11,13,15,17,19,21,23,-1,-1,25,27,29,31,33,35,37,39,41,-1,43,-1,-1,45,-1,47,49,51,53,55,-1,57,59,-1,61,63,65,67,69,71,-1,-1,-1,-1,-1,-1,-1,-1,-1,-1,-1,-1,-1,-1,-1,-1,-1,-1,-1,-1,-1,-1,-1,-1,-1,-1,-1,-1,-1],"loss_changes":[3.5105925E5,2.6629578E5,3.8503125E3,1.294806E5,1.7007062E4,1.6959375E2,2.9438507E1,5.821042E4,9.24108E3,6.09062E3,3.0459375E3,9.8625E1,0E0,0E0,8.800354E-1,6.616557E4,8.731656E3,4.3712695E3,8.487743E3,6.6991003E2,2.7281602E3,1.9134375E3,2.2545042E3,0E0,1.61875E1,0E0,0E0,1.4533059E4,0E0,2.6734688E3,5.565796E1,3.3296414E3,3.7133906E3,1.6795898E1,0E0,1.9113368E2,4.2138916E1,0E0,7.069961E2,1.3267188E3,1.656761E3,3.9676208E0,1.4195508E2,7.3125E0,0E0,0E0,0E0,0E0,0E0,0E0,0E0,0E0,0E0,0E0,0E0,0E0,0E0,0E0,0E0,0E0,0E0,0E0,0E0,0E0,0E0,0E0,0E0,0E0,0E0,0E0,0E0,0E0,0E0],"parents":[2147483647,0,0,1,1,2,2,3,3,4,4,5,5,6,6,7,7,8,8,9,9,10,10,11,11,14,14,15,15,16,16,17,17,18,18,19,19,20,20,21,21,22,22,24,24,27,27,29,29,30,30,31,31,32,32,33,33,35,35,36,36,38,38,39,39,40,40,41,41,42,42,43,43],"right_children":[2,4,6,8,10,12,14,16,18,20,22,24,-1,-1,26,28,30,32,34,36,38,40,42,-1,44,-1,-1,46,-1,48,50,52,54,56,-1,58,60,-1,62,64,66,68,70,72,-1,-1,-1,-1,-1,-1,-1,-1,-1,-1,-1,-1,-1,-1,-1,-1,-1,-1,-1,-1,-1,-1,-1,-1,-1,-1,-1,-1,-1],"split_conditions":[1.4957224E3,8E0,1.23E2,2.4E1,2.4E1,3.4E2,1E0,6E0,1E0,3E0,3.7851315E6,2.27E2,-1.13310635E-1,1.8474084E-1,1.767767E1,1.23E2,3.4641016E0,2.4E1,1.23E2,3.4083192E0,2.4E1,5E7,1.64E7,-1.0830523E-1,3.1088E4,-1.3210276E-2,-1.2003356E-1,2.51E2,-1.2035135E-1,5.445E3,1.23E2,2.47E2,1.12E7,1.75E2,-1.2026554E-1,2.4E1,2.35E2,-1.1996671E-1,2.8E1,6E0,6E0,7E0,1.8E1,1.3E1,-7.920976E-2,-1.4313528E-1,1.8516849E-1,2.1937338E-1,-1.4937386E-1,5.331815E-2,-1.2034257E-1,-1.01628505E-1,2.1910463E-1,-1.099836E-1,1.6039006E-1,-7.71313E-2,2.2195987E-1,-1.1514187E-1,2.2020505E-1,1.979192E-1,-1.2026604E-1,2.212077E-1,-1.1854871E-1,2.213471E-1,-1.1821605E-1,2.6811233E-1,-1.1983233E-1,-3.805254E-2,-1.1884021E-1,2.2200428E-1,5.4733676E-1,2.2224195E-1,-1.9161202E-2],"split_indices":[13,52,0,35,0,67,46,39,43,24,71,67,0,0,9,0,9,0,0,37,69,27,26,0,66,0,0,66,0,19,0,67,21,67,0,69,66,0,2,40,5,3,2,3,0,0,0,0,0,0,0,0,0,0,0,0,0,0,0,0,0,0,0,0,0,0,0,0,0,0,0,0,0],"split_type":[0,0,0,0,0,0,0,0,0,0,0,0,0,0,0,0,0,0,0,0,0,0,0,0,0,0,0,0,0,0,0,0,0,0,0,0,0,0,0,0,0,0,0,0,0,0,0,0,0,0,0,0,0,0,0,0,0,0,0,0,0,0,0,0,0,0,0,0,0,0,0,0,0],"sum_hessian":[4.1275806E5,3.584378E5,5.432027E4,1.1906777E5,2.3937003E5,5.3984008E4,3.3626068E2,8.1461766E4,3.7606008E4,3.8394966E3,2.3553053E5,5.39695E4,1.4508835E1,2.3560162E0,3.3390466E2,3.4217992E4,4.7243773E4,3.459128E4,3.0147295E3,1.1639613E3,2.6755352E3,2.3478164E5,7.488899E2,8.4819975E0,5.396102E4,1.0362703E0,3.3286838E2,1.9626162E4,1.459183E4,4.6448594E4,7.951799E2,1.3159534E3,3.327533E4,1.7991251E3,1.2156042E3,1.00407394E2,1.063554E3,2.7472824E2,2.400807E3,2.3434014E5,4.4149863E2,3.187646E2,4.3012534E2,5.395969E4,1.3273016E0,1.455708E3,1.8170455E4,4.6251785E4,1.9680692E2,1.8373947E1,7.768059E2,5.709183E2,7.450351E2,3.2760193E4,5.15133E2,1.4300125E0,1.7976952E3,2.086118E1,7.954622E1,3.3196688E0,1.0602343E3,2.3385022E3,6.2304893E1,1.1424397E2,2.342259E5,2.3883768E2,2.0266095E2,7.3928456E0,3.1137173E2,4.1671954E2,1.340577E1,5.395859E4,1.1015269E0],"tree_param":{"num_deleted":"0","num_feature":"78","num_nodes":"73","size_leaf_vector":"1"}},{"base_weights":[-1.6397625E-1,-5.086911E-1,1.959745E0,6.3493425E-1,-1.1110377E0,1.9774448E0,-1.1462505E0,1.261323E0,-8.125336E-1,8.728001E-1,-1.1452849E0,1.9782261E0,-1.1063588E-1,1.67191E-1,-1.1739502E0,3.7085146E-1,1.8884621E0,-1.0302508E-1,-1.148672E0,-9.330834E-1,1.6025065E0,-1.1517721E0,7.698011E-1,-1.0553628E-1,1.9786847E0,-1.1770669E-1,-1.1058383E-2,1.4053164E0,-1.1804222E-1,1.935807E0,-1.1370473E0,1.4304429E0,-7.7005816E-1,-1.1742675E0,-3.3131257E-1,1.3578563E0,-1.1673404E0,-1.1763235E-1,1.8936017E0,-1.1557534E0,8.111051E-1,-1.1455365E0,2.0535038E0,1.978763E0,-7.6353006E-2,-1.232418E-1,1.6673554E-1,-1.319345E-1,1.9532907E-1,-1.16947114E-1,9.94061E-2,-9.759606E-2,1.8533783E-1,-9.346259E-2,2.1584547E-1,8.3921246E-2,-1.1799147E-1,-1.2046849E-1,9.676986E-2,-1.1258229E-1,1.9601105E-1,1.7768338E-1,-1.1794948E-1,1.9683915E-1,-1.1614529E-1,-1.1604264E-1,2.007916E-2,2.2852604E-1,-1.1748844E-1,-3.5463598E-2,-1.1641151E-1,1.9765387E-1,3.6263224E-1,1.9788097E-1,-1.8269068E-2],"categories":[],"categories_nodes":[],"categories_segments":[],"categories_sizes":[],"default_left":[0,0,0,0,0,0,0,0,0,0,0,0,0,0,0,0,0,0,0,0,0,0,0,0,0,0,0,0,0,0,0,0,0,0,0,0,0,0,0,0,0,0,0,0,0,0,0,0,0,0,0,0,0,0,0,0,0,0,0,0,0,0,0,0,0,0,0,0,0,0,0,0,0,0,0],"id":4,"left_children":[1,3,5,7,9,11,13,15,17,19,21,23,-1,-1,25,27,29,31,33,35,37,39,41,-1,43,-1,-1,45,-1,47,49,51,53,55,57,59,61,-1,63,65,67,69,71,73,-1,-1,-1,-1,-1,-1,-1,-1,-1,-1,-1,-1,-1,-1,-1,-1,-1,-1,-1,-1,-1,-1,-1,-1,-1,-1,-1,-1,-1,-1,-1],"loss_changes":[2.874527E5,2.327103E5,3.01675E3,1.0567025E5,1.5034594E4,1.335625E2,2.6266144E1,4.542608E4,8.395336E3,4.9505293E3,2.70325E3,7.7921875E1,0E0,0E0,8.935852E-1,5.394672E4,6.8390625E3,1.1577292E4,4.993164E2,5.819643E2,2.16619E3,1.6950938E3,1.8093687E3,0E0,1.3203125E1,0E0,0E0,1.394191E4,0E0,2.677125E3,5.2020447E1,3.4936626E3,3.803248E3,2.6433203E2,8.2557996E2,1.5296281E2,3.7224E1,0E0,5.556592E2,1.3716875E3,1.2891101E3,3.9300537E0,4.6141724E1,5.859375E0,0E0,0E0,0E0,0E0,0E0,0E0,0E0,0E0,0E0,0E0,0E0,0E0,0E0,0E0,0E0,0E0,0E0,0E0,0E0,0E0,0E0,0E0,0E0,0E0,0E0,0E0,0E0,0E0,0E0,0E0,0E0],"parents":[2147483647,0,0,1,1,2,2,3,3,4,4,5,5,6,6,7,7,8,8,9,9,10,10,11,11,14,14,15,15,16,16,17,17,18,18,19,19,20,20,21,21,22,22,24,24,27,27,29,29,30,30,31,31,32,32,33,33,34,34,35,35,36,36,38,38,39,39,40,40,41,41,42,42,43,43],"right_children":[2,4,6,8,10,12,14,16,18,20,22,24,-1,-1,26,28,30,32,34,36,38,40,42,-1,44,-1,-1,46,-1,48,50,52,54,56,58,60,62,-1,64,66,68,70,72,74,-1,-1,-1,-1,-1,-1,-1,-1,-1,-1,-1,-1,-1,-1,-1,-1,-1,-1,-1,-1,-1,-1,-1,-1,-1,-1,-1,-1,-1,-1,-1],"split_conditions":[1.4957224E3,8E0,1.23E2,2.4E1,2.4E1,3.4E2,1E0,6E0,1.23E2,3E0,3.7851315E6,2.27E2,-1.1063588E-1,1.67191E-1,2.3826155E3,1.23E2,3.4641016E0,1.5015E4,1.8141E5,3.4083192E0,2.4E1,5E7,1.64E7,-1.0553628E-1,3.1088E4,-1.1770669E-1,-1.1058383E-2,3.1E1,-1.1804222E-1,2.51E2,9.2750194E5,2.35E2,1.06E7,2.8E1,5.54E2,2.4E1,2.35E2,-1.1763235E-1,2.8E1,1.2296246E3,6E0,7E0,1.8E1,1.3E1,-7.6353006E-2,-1.232418E-1,1.6673554E-1,-1.319345E-1,1.9532907E-1,-1.16947114E-1,9.94061E-2,-9.759606E-2,1.8533783E-1,-9.346259E-2,2.1584547E-1,8.3921246E-2,-1.1799147E-1,-1.2046849E-1,9.676986E-2,-1.1258229E-1,1.9601105E-1,1.7768338E-1,-1.1794948E-1,1.9683915E-1,-1.1614529E-1,-1.1604264E-1,2.007916E-2,2.2852604E-1,-1.1748844E-1,-3.5463598E-2,-1.1641151E-1,1.9765387E-1,3.6263224E-1,1.9788097E-1,-1.8269068E-2],"split_indices":[13,52,0,35,0,67,46,39,0,24,71,67,0,0,41,0,9,16,24,37,69,27,26,0,66,0,0,69,0,66,22,67,17,35,0,69,66,0,2,13,5,3,2,3,0,0,0,0,0,0,0,0,0,0,0,0,0,0,0,0,0,0,0,0,0,0,0,0,0,0,0,0,0,0,0],"split_type":[0,0,0,0,0,0,0,0,0,0,0,0,0,0,0,0,0,0,0,0,0,0,0,0,0,0,0,0,0,0,0,0,0,0,0,0,0,0,0,0,0,0,0,0,0,0,0,0,0,0,0,0,0,0,0,0,0,0,0,0,0,0,0,0,0,0,0,0,0,0,0,0,0,0,0],"sum_hessian":[3.926506E5,3.3781797E5,5.4832637E4,1.1654454E5,2.2127344E5,5.45223E4,3.1033453E2,8.134345E4,3.5201086E4,3.754628E3,2.175188E5,5.450885E4,1.34521885E1,2.4428308E0,3.0789172E2,3.3615113E4,4.772834E4,1.1316319E4,2.3884766E4,1.0804479E3,2.6741802E3,2.1678486E5,7.339407E2,7.8907948E0,5.4500957E4,3.068853E2,1.0064046E0,2.0166922E4,1.3448192E4,4.6993324E4,7.350181E2,3.429944E3,7.886375E3,2.3159104E4,7.2566315E2,9.978583E1,9.80662E2,2.5328163E2,2.4208987E3,2.1634645E5,4.3840436E2,2.94557E2,4.3938364E2,5.449968E4,1.2791677E0,1.8220566E3,1.8344865E4,2.5065945E2,4.6742664E4,7.244472E2,1.05709E1,5.125196E2,2.9174246E3,7.4674243E3,4.189509E2,6.4358696E1,2.3094744E4,4.339652E2,2.9169794E2,1.9304655E1,8.048118E1,3.4348776E0,9.772271E2,2.3633967E3,5.750192E1,2.156039E5,7.425505E2,2.5154068E2,1.868637E2,7.2214932E0,2.873355E2,4.210371E2,1.8346535E1,5.449859E4,1.0892627E0],"tree_param":{"num_deleted":"0","num_feature":"78","num_nodes":"75","size_leaf_vector":"1"}},{"base_weights":[-1.5931405E-1,-4.919319E-1,1.786402E0,5.891419E-1,-1.0886998E0,1.8018663E0,-1.1247588E0,1.156537E0,-7.8648925E-1,8.1284314E-1,-1.1230615E0,1.802553E0,-1.0819872E-1,1.5318558E-1,-1.1533947E0,3.4157017E-1,1.7189763E0,-9.919889E-2,-1.1251721E0,-9.119389E-1,1.4703225E0,-1.12959E0,7.154107E-1,-1.02972865E-1,1.8029578E0,-1.5385729E-2,-1.1567354E-1,1.2606835E0,-1.1603179E-1,1.760288E0,-1.1142399E0,1.2839755E0,-7.3876756E-1,-1.1601859E0,-4.8306414E-1,1.2507217E0,-1.1467934E0,-1.1559242E-1,1.7267326E0,-1.1336145E0,7.4512714E-1,-1.1228156E0,1.8571012E0,1.8030295E0,-7.367879E-2,-1.20488845E-1,1.484902E-1,-1.266527E-1,1.7757337E-1,5.370744E-2,-1.1603611E-1,-9.433048E-2,1.6451417E-1,-9.0003856E-2,1.9080783E-1,7.06929E-2,-1.1663455E-1,-1.1659389E-1,4.8053376E-2,-1.1027064E-1,1.7845997E-1,1.6198868E-1,-1.1593073E-1,1.7921613E-1,-1.140206E-1,-1.1385874E-1,1.7812043E-2,2.0220101E-1,-1.1543753E-1,-3.302108E-2,-1.14264525E-1,1.8007135E-1,2.8316885E-1,1.8030724E-1,-1.7419064E-2],"categories":[],"categories_nodes":[],"categories_segments":[],"categories_sizes":[],"default_left":[0,0,0,0,0,0,0,0,0,0,0,0,0,0,0,0,0,0,0,0,0,0,0,0,0,0,0,0,0,0,0,0,0,0,0,0,0,0,0,0,0,0,0,0,0,0,0,0,0,0,0,0,0,0,0,0,0,0,0,0,0,0,0,0,0,0,0,0,0,0,0,0,0,0,0],"id":5,"left_children":[1,3,5,7,9,11,13,15,17,19,21,23,-1,-1,25,27,29,31,33,35,37,39,41,-1,43,-1,-1,45,-1,47,49,51,53,55,57,59,61,-1,63,65,67,69,71,73,-1,-1,-1,-1,-1,-1,-1,-1,-1,-1,-1,-1,-1,-1,-1,-1,-1,-1,-1,-1,-1,-1,-1,-1,-1,-1,-1,-1,-1,-1,-1],"loss_changes":[2.4010844E5,2.044119E5,2.4404375E3,8.796159E4,1.3340156E4,1.08671875E2,2.3586426E1,3.657086E4,7.66025E3,4.111205E3,2.4075781E3,6.359375E1,0E0,0E0,7.7145386E-1,4.4975664E4,5.5272656E3,9.612223E3,4.9507812E2,5.097798E2,1.7692119E3,1.5084531E3,1.4924907E3,0E0,1.115625E1,0E0,0E0,1.1175531E4,0E0,2.1775E3,5.2340027E1,2.7652559E3,3.173294E3,2.4124023E2,7.5180145E2,1.25752304E2,3.31532E1,0E0,4.5060352E2,1.3008125E3,1.04198E3,3.908905E0,1.8996094E1,4.875E0,0E0,0E0,0E0,0E0,0E0,0E0,0E0,0E0,0E0,0E0,0E0,0E0,0E0,0E0,0E0,0E0,0E0,0E0,0E0,0E0,0E0,0E0,0E0,0E0,0E0,0E0,0E0,0E0,0E0,0E0,0E0],"parents":[2147483647,0,0,1,1,2,2,3,3,4,4,5,5,6,6,7,7,8,8,9,9,10,10,11,11,14,14,15,15,16,16,17,17,18,18,19,19,20,20,21,21,22,22,24,24,27,27,29,29,30,30,31,31,32,32,33,33,34,34,35,35,36,36,38,38,39,39,40,40,41,41,42,42,43,43],"right_children":[2,4,6,8,10,12,14,16,18,20,22,24,-1,-1,26,28,30,32,34,36,38,40,42,-1,44,-1,-1,46,-1,48,50,52,54,56,58,60,62,-1,64,66,68,70,72,74,-1,-1,-1,-1,-1,-1,-1,-1,-1,-1,-1,-1,-1,-1,-1,-1,-1,-1,-1,-1,-1,-1,-1,-1,-1,-1,-1,-1,-1,-1,-1],"split_conditions":[1.4957224E3,8E0,1.23E2,2.4E1,2.4E1,3.4E2,1E0,6E0,1.23E2,3E0,3.7851315E6,2.27E2,-1.0819872E-1,1.5318558E-1,1.85E1,1.23E2,3.4641016E0,1.5015E4,8E1,3.4083192E0,2.4E1,5E7,1.64E7,-1.02972865E-1,3.1088E4,-1.5385729E-2,-1.1567354E-1,3.1E1,-1.1603179E-1,2.51E2,1.23E2,2.35E2,1.19E7,2.8E1,1E0,2.4E1,2.35E2,-1.1559242E-1,2.8E1,1.2296246E3,6E0,7E0,1.8E1,1.3E1,-7.367879E-2,-1.20488845E-1,1.484902E-1,-1.266527E-1,1.7757337E-1,5.370744E-2,-1.1603611E-1,-9.433048E-2,1.6451417E-1,-9.0003856E-2,1.9080783E-1,7.06929E-2,-1.1663455E-1,-1.1659389E-1,4.8053376E-2,-1.1027064E-1,1.7845997E-1,1.6198868E-1,-1.1593073E-1,1.7921613E-1,-1.140206E-1,-1.1385874E-1,1.7812043E-2,2.0220101E-1,-1.1543753E-1,-3.302108E-2,-1.14264525E-1,1.8007135E-1,2.8316885E-1,1.8030724E-1,-1.7419064E-2],"split_indices":[13,52,0,35,0,67,46,39,0,24,71,67,0,0,9,0,9,16,34,37,69,27,26,0,66,0,0,69,0,66,0,67,17,35,46,69,66,0,2,13,5,3,2,3,0,0,0,0,0,0,0,0,0,0,0,0,0,0,0,0,0,0,0,0,0,0,0,0,0,0,0,0,0,0,0],"split_type":[0,0,0,0,0,0,0,0,0,0,0,0,0,0,0,0,0,0,0,0,0,0,0,0,0,0,0,0,0,0,0,0,0,0,0,0,0,0,0,0,0,0,0,0,0,0,0,0,0,0,0,0,0,0,0,0,0,0,0,0,0,0,0,0,0,0,0,0,0,0,0,0,0,0,0],"sum_hessian":[3.7100497E5,3.1684194E5,5.4163004E4,1.12693055E5,2.0414889E5,5.3877188E4,2.8581857E2,7.978498E4,3.2908086E4,3.623191E3,2.005257E5,5.386473E4,1.24535675E1,2.4882057E0,2.8333038E2,3.2579426E4,4.7205547E4,1.0863679E4,2.2044406E4,9.9985626E2,2.6233347E3,1.9981655E5,7.0916144E2,7.3321896E0,5.38574E4,1.1005483E0,2.8222983E2,2.0211014E4,1.2368413E4,4.6527496E4,6.7805005E2,3.4346548E3,7.429024E3,2.090373E4,1.140675E3,9.751968E1,9.023366E2,2.3303151E2,2.3903032E3,1.9938889E5,4.276418E2,2.7170618E2,4.3745526E2,5.3856168E4,1.2317802E0,1.6844064E3,1.8526607E4,2.3581001E2,4.6291688E4,1.8134132E1,6.5991595E2,4.790129E2,2.9556418E3,7.0029946E3,4.2602908E2,6.835965E1,2.0835371E4,6.6745703E2,4.7321802E2,1.7834888E1,7.9684784E1,3.4845831E0,8.98852E2,2.337336E3,5.2967255E1,1.98636E5,7.529009E2,2.5569447E2,1.7194734E2,7.0625987E0,2.6464355E2,4.162212E2,2.1234087E1,5.385509E4,1.0775841E0],"tree_param":{"num_deleted":"0","num_feature":"78","num_nodes":"75","size_leaf_vector":"1"}},{"base_weights":[-1.5509866E-1,-4.7717792E-1,1.6556052E0,5.5188763E-1,-1.0687263E0,1.6694717E0,-1.1057296E0,1.0736696E0,-7.624483E-1,7.656184E-1,-1.1031318E0,1.6700917E0,-1.0595522E-1,1.4174919E-1,-1.1352967E0,3.170421E-1,1.5899801E0,-9.533456E-2,-1.1039323E0,-8.935646E-1,1.3689518E0,-1.1096853E0,6.729135E-1,-1.0057648E-1,1.6704587E0,-1.4662156E-2,-1.1388724E-1,1.1446993E0,-1.1427375E-1,1.6269572E0,-1.0935303E0,1.165035E0,-7.0898354E-1,-1.1411893E0,-4.535337E-1,1.1674007E0,-1.1287681E0,-1.1380048E-1,1.6001697E0,-1.1137391E0,6.948342E-1,-1.0998387E0,1.7127595E0,1.6705261E0,-7.116674E-2,-1.5485267E-1,1.3500187E-1,1.641976E-1,-1.6211191E-1,4.7198266E-2,-1.14248194E-1,2.7199438E-2,1.9090573E-1,-8.607134E-2,1.9566582E-1,6.0710736E-2,-1.1477615E-1,-1.147452E-1,4.1859925E-2,-1.0816226E-1,1.6515379E-1,1.4944987E-1,-1.1416342E-1,1.6588877E-1,-1.1212846E-1,2.2239526E-1,-1.115829E-1,1.8341464E-1,-1.1363318E-1,-2.754651E-2,-1.1235219E-1,2.3872088E-1,1.6685113E-1,1.6705666E-1,-1.6609134E-2],"categories":[],"categories_nodes":[],"categories_segments":[],"categories_sizes":[],"default_left":[0,0,0,0,0,0,0,0,0,0,0,0,0,0,0,0,0,0,0,0,0,0,0,0,0,0,0,0,0,0,0,0,0,0,0,0,0,0,0,0,0,0,0,0,0,0,0,0,0,0,0,0,0,0,0,0,0,0,0,0,0,0,0,0,0,0,0,0,0,0,0,0,0,0,0],"id":6,"left_children":[1,3,5,7,9,11,13,15,17,19,21,23,-1,-1,25,27,29,31,33,35,37,39,41,-1,43,-1,-1,45,-1,47,49,51,53,55,57,59,61,-1,63,65,67,69,71,73,-1,-1,-1,-1,-1,-1,-1,-1,-1,-1,-1,-1,-1,-1,-1,-1,-1,-1,-1,-1,-1,-1,-1,-1,-1,-1,-1,-1,-1,-1,-1],"loss_changes":[2.0340512E5,1.8025473E5,2.018625E3,7.412514E4,1.1867391E4,9.04375E1,2.1288055E1,3.0224508E4,6.9972246E3,3.4671418E3,2.1489531E3,5.3109375E1,0E0,0E0,7.5671387E-1,3.7918164E4,4.565125E3,8.0449365E3,4.917832E2,4.4916644E2,1.4738115E3,1.3459688E3,1.2538134E3,0E0,9.625E0,0E0,0E0,1.1077146E4,0E0,2.2155781E3,4.8487305E1,2.2626226E3,2.8310935E3,2.2147461E2,6.676316E2,1.0536482E2,2.9711548E1,0E0,3.7345703E2,1.2822344E3,8.632857E2,4.6045837E0,8.803223E0,4.171875E0,0E0,0E0,0E0,0E0,0E0,0E0,0E0,0E0,0E0,0E0,0E0,0E0,0E0,0E0,0E0,0E0,0E0,0E0,0E0,0E0,0E0,0E0,0E0,0E0,0E0,0E0,0E0,0E0,0E0,0E0,0E0],"parents":[2147483647,0,0,1,1,2,2,3,3,4,4,5,5,6,6,7,7,8,8,9,9,10,10,11,11,14,14,15,15,16,16,17,17,18,18,19,19,20,20,21,21,22,22,24,24,27,27,29,29,30,30,31,31,32,32,33,33,34,34,35,35,36,36,38,38,39,39,40,40,41,41,42,42,43,43],"right_children":[2,4,6,8,10,12,14,16,18,20,22,24,-1,-1,26,28,30,32,34,36,38,40,42,-1,44,-1,-1,46,-1,48,50,52,54,56,58,60,62,-1,64,66,68,70,72,74,-1,-1,-1,-1,-1,-1,-1,-1,-1,-1,-1,-1,-1,-1,-1,-1,-1,-1,-1,-1,-1,-1,-1,-1,-1,-1,-1,-1,-1,-1,-1],"split_conditions":[1.4957224E3,8E0,1.23E2,2.4E1,2.4E1,3.4E2,1E0,6E0,1.23E2,3E0,3.7851315E6,2.27E2,-1.0595522E-1,1.4174919E-1,1.85E1,1.23E2,3.4641016E0,1.5015E4,8E1,3.4083192E0,2.4E1,5E7,6.935436E6,-1.0057648E-1,3.1088E4,-1.4662156E-2,-1.1388724E-1,2.51E2,-1.1427375E-1,5.445E3,1.23E2,7.5E1,3.4641016E0,2.8E1,1E0,2.4E1,2.35E2,-1.1380048E-1,2.8E1,6E0,6E0,7E0,4.3141715E6,1.3E1,-7.116674E-2,-1.5485267E-1,1.3500187E-1,1.641976E-1,-1.6211191E-1,4.7198266E-2,-1.14248194E-1,2.7199438E-2,1.9090573E-1,-8.607134E-2,1.9566582E-1,6.0710736E-2,-1.1477615E-1,-1.147452E-1,4.1859925E-2,-1.0816226E-1,1.6515379E-1,1.4944987E-1,-1.1416342E-1,1.6588877E-1,-1.1212846E-1,2.2239526E-1,-1.115829E-1,1.8341464E-1,-1.1363318E-1,-2.754651E-2,-1.1235219E-1,2.3872088E-1,1.6685113E-1,1.6705666E-1,-1.6609134E-2],"split_indices":[13,52,0,35,0,67,46,39,0,24,71,67,0,0,9,0,9,16,34,37,69,27,29,0,66,0,0,66,0,19,0,21,41,35,46,69,66,0,2,40,5,3,71,3,0,0,0,0,0,0,0,0,0,0,0,0,0,0,0,0,0,0,0,0,0,0,0,0,0,0,0,0,0,0,0],"split_type":[0,0,0,0,0,0,0,0,0,0,0,0,0,0,0,0,0,0,0,0,0,0,0,0,0,0,0,0,0,0,0,0,0,0,0,0,0,0,0,0,0,0,0,0,0,0,0,0,0,0,0,0,0,0,0,0,0,0,0,0,0,0,0,0,0,0,0,0,0,0,0,0,0,0,0],"sum_hessian":[3.4877778E5,2.9610822E5,5.2669562E4,1.0808397E5,1.8802425E5,5.2406785E4,2.627756E2,7.736915E4,3.0714816E4,3.4613154E3,1.8456294E5,5.239527E4,1.1514971E1,2.499848E0,2.6027576E2,3.1382002E4,4.598715E4,1.0399642E4,2.0315174E4,9.2288275E2,2.5384326E3,1.8388478E5,6.7814557E2,6.8070874E0,5.2388465E4,1.0893129E0,2.5918643E2,2.0027273E4,1.13547295E4,4.5362477E4,6.2467365E2,3.4050771E3,6.9945645E3,1.921379E4,1.1013849E3,9.412771E1,8.28755E2,2.1402E2,2.3244126E3,1.83473E5,4.1179492E2,2.5069594E2,4.2744965E2,5.2387277E4,1.1854272E0,1.4181737E3,1.86091E4,4.5154184E4,2.0829318E2,1.8678478E1,6.059952E2,1.5481807E3,1.8568965E3,6.6185117E3,3.7605246E2,7.1614914E1,1.9142174E4,6.1318475E2,4.8820016E2,1.6454666E1,7.767304E1,3.4828303E0,8.2527216E2,2.2757026E3,4.8710022E1,1.1414004E2,1.8335886E5,2.5385202E2,1.5794292E2,7.35381E0,2.4334212E2,2.305686E1,4.043928E2,5.238621E4,1.0664653E0],"tree_param":{"num_deleted":"0","num_feature":"78","num_nodes":"75","size_leaf_vector":"1"}},{"base_weights":[-1.5118338E-1,-4.63687E-1,1.5537014E0,5.1967293E-1,-1.0508199E0,1.5663766E0,-1.0887752E0,1.0032343E0,-7.395428E-1,7.275131E-1,-1.0852195E0,1.5669473E0,-1.0386925E-1,1.3222337E-1,-1.1192782E0,2.9398644E-1,1.4878699E0,-1.0494436E-1,-1.0928628E0,-8.774937E-1,1.2888612E0,-1.0917867E0,6.387696E-1,-9.831566E-2,1.5672867E0,-1.3972779E-2,-1.12312E-1,1.0383984E0,-1.12730525E-1,1.5215693E0,-1.074689E0,6.50925E-1,-9.469229E-1,-1.1247842E0,-2.5924653E-1,1.1007363E0,-1.1128829E0,-1.1221879E-1,1.5010309E0,-1.097566E0,2.8696024E-1,-1.0835544E0,1.5990075E0,1.5673532E0,-6.704498E-2,1.6243187E-1,2.4392946E-2,-1.2809297E-1,1.5370354E-1,-1.1141189E-1,9.5241114E-2,-4.750652E-2,2.3400913E-1,1.7269933E-1,-1.14320196E-1,-2.346936E-2,-1.12798564E-1,-1.1594155E-1,8.400002E-2,-1.0622039E-1,1.5473114E-1,1.3918342E-1,-1.12609915E-1,1.554732E-1,-1.1043107E-1,-1.1016697E-1,6.552611E-2,6.707945E-1,-4.99033E-2,-2.8777419E-2,-1.1063593E-1,1.5647206E-1,2.07804E-1,1.5674001E-1,6.861171E-2],"categories":[],"categories_nodes":[],"categories_segments":[],"categories_sizes":[],"default_left":[0,0,0,0,0,0,0,0,0,0,0,0,0,0,0,0,0,0,0,0,0,0,0,0,0,0,0,0,0,0,0,0,0,0,0,0,0,0,0,0,0,0,0,0,0,0,0,0,0,0,0,0,0,0,0,0,0,0,0,0,0,0,0,0,0,0,0,0,0,0,0,0,0,0,0],"id":7,"left_children":[1,3,5,7,9,11,13,15,17,19,21,23,-1,-1,25,27,29,31,33,35,37,39,41,-1,43,-1,-1,45,-1,47,49,51,53,55,57,59,61,-1,63,65,67,69,71,73,-1,-1,-1,-1,-1,-1,-1,-1,-1,-1,-1,-1,-1,-1,-1,-1,-1,-1,-1,-1,-1,-1,-1,-1,-1,-1,-1,-1,-1,-1,-1],"loss_changes":[1.7408789E5,1.594314E5,1.6970156E3,6.2861348E4,1.0577891E4,7.653125E1,1.9293396E1,2.5638531E4,6.422506E3,2.9578428E3,1.9211406E3,4.5125E1,0E0,0E0,7.452698E-1,3.2038422E4,3.8282656E3,6.5212085E3,4.8933984E2,3.9747522E2,1.2456523E3,1.3467656E3,1.0673351E3,0E0,8.546875E0,0E0,0E0,9.250205E3,0E0,1.8976953E3,4.7080322E1,1.0270854E4,2.5459253E3,5.0234375E1,6.7374365E2,8.953269E1,2.6757385E1,0E0,3.1448438E2,1.2111094E3,3.5671372E3,3.8779602E0,3.5496826E0,1.0078125E0,0E0,0E0,0E0,0E0,0E0,0E0,0E0,0E0,0E0,0E0,0E0,0E0,0E0,0E0,0E0,0E0,0E0,0E0,0E0,0E0,0E0,0E0,0E0,0E0,0E0,0E0,0E0,0E0,0E0,0E0,0E0],"parents":[2147483647,0,0,1,1,2,2,3,3,4,4,5,5,6,6,7,7,8,8,9,9,10,10,11,11,14,14,15,15,16,16,17,17,18,18,19,19,20,20,21,21,22,22,24,24,27,27,29,29,30,30,31,31,32,32,33,33,34,34,35,35,36,36,38,38,39,39,40,40,41,41,42,42,43,43],"right_children":[2,4,6,8,10,12,14,16,18,20,22,24,-1,-1,26,28,30,32,34,36,38,40,42,-1,44,-1,-1,46,-1,48,50,52,54,56,58,60,62,-1,64,66,68,70,72,74,-1,-1,-1,-1,-1,-1,-1,-1,-1,-1,-1,-1,-1,-1,-1,-1,-1,-1,-1,-1,-1,-1,-1,-1,-1,-1,-1,-1,-1,-1,-1],"split_conditions":[1.4957224E3,8E0,1.23E2,2.4E1,2.4E1,3.4E2,1E0,6E0,3.89E2,3E0,3.7851315E6,2.27E2,-1.0386925E-1,1.3222337E-1,1.85E1,1.23E2,3.4641016E0,1.4011E4,1.8141E5,3.4083192E0,2.4E1,1.2296246E3,1.64E7,-9.831566E-2,1.7E1,-1.3972779E-2,-1.12312E-1,1.7E1,-1.12730525E-1,2.51E2,9.2750194E5,7.5E1,2.35E2,2.8E1,5.54E2,2.4E1,2.35E2,-1.1221879E-1,2.8E1,5E7,3.04E2,7E0,1.8E1,2.43E2,-6.704498E-2,1.6243187E-1,2.4392946E-2,-1.2809297E-1,1.5370354E-1,-1.1141189E-1,9.5241114E-2,-4.750652E-2,2.3400913E-1,1.7269933E-1,-1.14320196E-1,-2.346936E-2,-1.12798564E-1,-1.1594155E-1,8.400002E-2,-1.0622039E-1,1.5473114E-1,1.3918342E-1,-1.12609915E-1,1.554732E-1,-1.1043107E-1,-1.1016697E-1,6.552611E-2,6.707945E-1,-4.99033E-2,-2.8777419E-2,-1.1063593E-1,1.5647206E-1,2.07804E-1,1.5674001E-1,6.861171E-2],"split_indices":[13,52,0,35,0,67,46,39,0,24,71,67,0,0,9,0,9,24,24,37,69,13,26,0,3,0,0,19,0,66,22,21,66,35,0,69,66,0,2,27,66,3,2,67,0,0,0,0,0,0,0,0,0,0,0,0,0,0,0,0,0,0,0,0,0,0,0,0,0,0,0,0,0,0,0],"split_type":[0,0,0,0,0,0,0,0,0,0,0,0,0,0,0,0,0,0,0,0,0,0,0,0,0,0,0,0,0,0,0,0,0,0,0,0,0,0,0,0,0,0,0,0,0,0,0,0,0,0,0,0,0,0,0,0,0,0,0,0,0,0,0,0,0,0,0,0,0,0,0,0,0,0,0],"sum_hessian":[3.2674984E5,2.7613525E5,5.061458E4,1.03233945E5,1.7290131E5,5.037336E4,2.412185E2,7.459018E4,2.8643762E4,3.2807078E3,1.6962061E5,5.0362723E4,1.0636834E1,2.4845898E0,2.3873392E2,3.02792E4,4.431098E4,1.0244644E4,1.839912E4,8.4995435E2,2.4307534E3,1.6897728E5,6.4331995E2,6.315582E0,5.0356406E4,1.0786479E0,2.3765527E2,1.9871584E4,1.0407617E4,4.3736227E4,5.7475494E2,5.3984873E3,4.8461567E3,1.7720215E4,6.789034E2,8.9990524E1,7.5996387E2,1.9625601E2,2.2344973E3,1.6827214E5,7.0514124E2,2.3023395E2,4.1308597E2,5.035521E4,1.1975121E0,1.1436285E4,8.435298E3,2.395919E2,4.3496637E4,5.642302E2,1.0524668E1,3.2396626E3,2.1588247E3,3.308723E2,4.515284E3,6.3772747E1,1.7656441E4,3.7322012E2,3.056833E2,1.5164463E1,7.482606E1,3.441408E0,7.5652246E2,2.1897654E3,4.4732006E1,1.6787948E5,3.9266605E2,7.6081024E1,6.290602E2,6.7934656E0,2.2344049E2,3.8947556E2,2.3610422E1,5.0351754E4,3.456078E0],"tree_param":{"num_deleted":"0","num_feature":"78","num_nodes":"75","size_leaf_vector":"1"}},{"base_weights":[-1.4765403E-1,-4.515586E-1,1.472354E0,4.9250266E-1,-1.0342994E0,1.484112E0,-1.0735749E0,9.443147E-1,-7.201519E-1,6.961714E-1,-1.0686326E0,1.4846457E0,-1.0191073E-1,1.24150135E-1,-1.1050268E0,2.740058E-1,1.4058262E0,-1.0122683E-1,-1.0758468E0,-8.6335456E-1,1.2240975E0,-1.0752002E0,6.1076754E-1,-9.616458E-2,1.4849646E0,-1.3315968E-2,-1.10916786E-1,9.483746E-1,-1.1137133E-1,1.4369917E0,-1.0573997E0,6.027329E-1,-9.308221E-1,-1.1099643E0,-2.4191886E-1,1.0461751E0,-1.0988246E0,-1.10816255E-1,1.4214146E0,-1.0766789E0,4.5182796E0,-1.0637054E0,1.5114578E0,1.4850316E0,-6.990486E-2,-1.2144487E-1,1.155259E-1,1.4522702E-1,-1.6165385E-1,4.7740843E-2,-1.1135065E-1,-4.357943E-2,2.1781114E-1,1.6160804E-1,-1.1273421E-1,-2.1488484E-2,-1.1134278E-1,-1.13803685E-1,7.185766E-2,-1.0441434E-1,1.4635767E-1,1.3060084E-1,-1.1123933E-1,1.4712442E-1,-1.0889697E-1,-1.0828109E-1,2.3462292E-2,9.202779E-1,-1.05922915E-1,-2.4360612E-2,-1.0908365E-1,1.8771362E-1,1.4828111E-1,1.4850701E-1,-1.4952834E-2],"categories":[],"categories_nodes":[],"categories_segments":[],"categories_sizes":[],"default_left":[0,0,0,0,0,0,0,0,0,0,0,0,0,0,0,0,0,0,0,0,0,0,0,0,0,0,0,0,0,0,0,0,0,0,0,0,0,0,0,0,0,0,0,0,0,0,0,0,0,0,0,0,0,0,0,0,0,0,0,0,0,0,0,0,0,0,0,0,0,0,0,0,0,0,0],"id":8,"left_children":[1,3,5,7,9,11,13,15,17,19,21,23,-1,-1,25,27,29,31,33,35,37,39,41,-1,43,-1,-1,45,-1,47,49,51,53,55,57,59,61,-1,63,65,67,69,71,73,-1,-1,-1,-1,-1,-1,-1,-1,-1,-1,-1,-1,-1,-1,-1,-1,-1,-1,-1,-1,-1,-1,-1,-1,-1,-1,-1,-1,-1,-1,-1],"loss_changes":[1.5020873E5,1.4133483E5,1.4442891E3,5.372397E4,9.438484E3,6.558594E1,1.7546295E1,2.2099488E4,5.859593E3,2.5458865E3,1.7186406E3,3.884375E1,0E0,0E0,7.364502E-1,2.726288E4,3.2494453E3,5.6742485E3,4.8064062E2,3.5290216E2,1.0644656E3,1.2881406E3,9.1767163E2,0E0,8.0625E0,0E0,0E0,8.77365E3,0E0,1.9515234E3,4.6101624E1,8.600411E3,2.2341467E3,5.0101562E1,5.73732E2,7.690418E1,2.4193237E1,0E0,2.680376E2,1.2475312E3,1.0861647E3,4.474243E0,1.3581543E0,3.2421875E0,0E0,0E0,0E0,0E0,0E0,0E0,0E0,0E0,0E0,0E0,0E0,0E0,0E0,0E0,0E0,0E0,0E0,0E0,0E0,0E0,0E0,0E0,0E0,0E0,0E0,0E0,0E0,0E0,0E0,0E0,0E0],"parents":[2147483647,0,0,1,1,2,2,3,3,4,4,5,5,6,6,7,7,8,8,9,9,10,10,11,11,14,14,15,15,16,16,17,17,18,18,19,19,20,20,21,21,22,22,24,24,27,27,29,29,30,30,31,31,32,32,33,33,34,34,35,35,36,36,38,38,39,39,40,40,41,41,42,42,43,43],"right_children":[2,4,6,8,10,12,14,16,18,20,22,24,-1,-1,26,28,30,32,34,36,38,40,42,-1,44,-1,-1,46,-1,48,50,52,54,56,58,60,62,-1,64,66,68,70,72,74,-1,-1,-1,-1,-1,-1,-1,-1,-1,-1,-1,-1,-1,-1,-1,-1,-1,-1,-1,-1,-1,-1,-1,-1,-1,-1,-1,-1,-1,-1,-1],"split_conditions":[1.4957224E3,8E0,1.23E2,2.4E1,2.4E1,3.4E2,1E0,6E0,3.89E2,3E0,3.7851315E6,2.27E2,-1.0191073E-1,1.24150135E-1,1.85E1,1.23E2,3.4641016E0,1.4011E4,1.8141E5,3.4083192E0,2.4E1,3.56E2,6.935436E6,-9.616458E-2,3.1088E4,-1.3315968E-2,-1.10916786E-1,3.1E1,-1.1137133E-1,5.445E3,1.23E2,1.39E2,2.35E2,2.8E1,5.54E2,2.4E1,2.35E2,-1.10816255E-1,2.8E1,1.2296246E3,8.11E2,7E0,4.3141715E6,1.3E1,-6.990486E-2,-1.2144487E-1,1.155259E-1,1.4522702E-1,-1.6165385E-1,4.7740843E-2,-1.1135065E-1,-4.357943E-2,2.1781114E-1,1.6160804E-1,-1.1273421E-1,-2.1488484E-2,-1.1134278E-1,-1.13803685E-1,7.185766E-2,-1.0441434E-1,1.4635767E-1,1.3060084E-1,-1.1123933E-1,1.4712442E-1,-1.0889697E-1,-1.0828109E-1,2.3462292E-2,9.202779E-1,-1.05922915E-1,-2.4360612E-2,-1.0908365E-1,1.8771362E-1,1.4828111E-1,1.4850701E-1,-1.4952834E-2],"split_indices":[13,52,0,35,0,67,46,39,0,24,71,67,0,0,9,0,9,24,24,37,69,38,29,0,66,0,0,69,0,19,0,21,66,35,0,69,66,0,2,13,4,3,71,3,0,0,0,0,0,0,0,0,0,0,0,0,0,0,0,0,0,0,0,0,0,0,0,0,0,0,0,0,0,0,0],"split_type":[0,0,0,0,0,0,0,0,0,0,0,0,0,0,0,0,0,0,0,0,0,0,0,0,0,0,0,0,0,0,0,0,0,0,0,0,0,0,0,0,0,0,0,0,0,0,0,0,0,0,0,0,0,0,0,0,0,0,0,0,0,0,0,0,0,0,0,0,0,0,0,0,0,0,0],"sum_hessian":[3.0509666E5,2.5690367E5,4.819299E4,9.805354E4,1.5885012E5,4.797185E4,2.2113435E2,7.14375E4,2.6616035E4,3.0899568E3,1.5576017E5,4.7962035E4,9.8184185E0,2.4483168E0,2.1868604E2,2.9130033E4,4.2307473E4,9.714191E3,1.6901844E4,7.8130347E2,2.3086533E3,1.5515378E5,6.063963E2,5.8571615E0,4.7956176E4,1.0685236E0,2.1761751E2,1.9603791E4,9.526241E3,4.177928E4,5.28188E2,5.255158E3,4.459033E3,1.623722E4,6.6462427E2,8.5390625E1,6.9591284E2,1.7972404E2,2.1289292E3,1.5511358E5,4.0198086E1,2.1203017E2,3.9436615E2,4.7955027E4,1.1516513E0,1.7110588E3,1.7892732E4,4.15718E4,2.0748111E2,1.8362772E1,5.098252E2,3.1676746E3,2.0874834E3,3.188973E2,4.1401357E3,6.283008E1,1.617439E4,3.4373935E2,3.2088495E2,1.39630575E1,7.142757E1,3.3700552E0,6.925428E2,2.0878997E3,4.1029613E1,1.5439177E5,7.2180615E2,2.1494808E1,1.8703276E1,7.1094627E0,2.049207E2,2.3961988E1,3.7040417E2,4.795399E4,1.0367422E0],"tree_param":{"num_deleted":"0","num_feature":"78","num_nodes":"75","size_leaf_vector":"1"}},{"base_weights":[-1.4447924E-1,-4.4068715E-1,1.4061682E0,4.6951067E-1,-1.0187562E0,1.4172027E0,-1.0598613E0,8.956377E-1,-7.01973E-1,6.699835E-1,-1.0529671E0,1.4177078E0,-1.0005456E-1,1.1720264E-1,-1.0922824E0,2.573611E-1,1.3375695E0,-8.199805E-2,-1.0513214E0,-8.508462E-1,1.1707364E0,-1.059523E0,5.874231E-1,-9.410199E-2,1.4180111E0,-1.2690181E-2,-1.0967585E-1,8.7778556E-1,-1.1017068E-1,1.3667003E0,-1.0413107E0,6.292698E-1,-9.172929E-1,-1.0969677E0,-3.5158506E-1,1.0006698E0,-1.0863334E0,-1.0956707E-1,1.3561856E0,-1.0679799E0,3.9483E-2,-1.0473835E0,1.439442E0,1.4180772E0,-6.761115E-2,-1.5423773E-1,1.0685293E-1,-1.2877893E-1,1.3829757E-1,4.2147506E-2,-1.10115305E-1,-3.4437753E-2,2.0343263E-1,1.5268104E-1,-1.11404695E-1,4.8601963E-2,-1.10509984E-1,-1.10732794E-1,3.9035186E-2,-1.0271826E-1,1.3949178E-1,1.2329604E-1,-1.10026054E-1,1.4029531E-1,-1.0749989E-1,2.2191048E-1,-1.07065454E-1,9.212041E-1,-2.2501921E-2,-2.2539122E-2,-1.0766844E-1,1.7196362E-1,1.415684E-1,1.4181158E-1,-1.4260528E-2],"categories":[],"categories_nodes":[],"categories_segments":[],"categories_sizes":[],"default_left":[0,0,0,0,0,0,0,0,0,0,0,0,0,0,0,0,0,0,0,0,0,0,0,0,0,0,0,0,0,0,0,0,0,0,0,0,0,0,0,0,0,0,0,0,0,0,0,0,0,0,0,0,0,0,0,0,0,0,0,0,0,0,0,0,0,0,0,0,0,0,0,0,0,0,0],"id":9,"left_children":[1,3,5,7,9,11,13,15,17,19,21,23,-1,-1,25,27,29,31,33,35,37,39,41,-1,43,-1,-1,45,-1,47,49,51,53,55,57,59,61,-1,63,65,67,69,71,73,-1,-1,-1,-1,-1,-1,-1,-1,-1,-1,-1,-1,-1,-1,-1,-1,-1,-1,-1,-1,-1,-1,-1,-1,-1,-1,-1,-1,-1,-1,-1],"loss_changes":[1.3045044E5,1.25467875E5,1.2410156E3,4.623797E4,8.42625E3,5.6796875E1,1.6004654E1,1.9157629E4,5.35083E3,2.2067556E3,1.5378594E3,3.3773438E1,0E0,0E0,7.297516E-1,2.3431523E4,2.7824766E3,5.291255E3,5.043203E2,3.1414978E2,9.174741E2,1.3233125E3,7.949614E2,0E0,7.234375E0,0E0,0E0,8.809041E3,0E0,1.714625E3,4.301172E1,6.581211E3,1.9713579E3,1.9148828E2,5.438406E2,6.662085E1,2.1947876E1,0E0,2.3060913E2,1.2444688E3,2.6421965E3,4.4719086E0,6.121826E-2,2.921875E0,0E0,0E0,0E0,0E0,0E0,0E0,0E0,0E0,0E0,0E0,0E0,0E0,0E0,0E0,0E0,0E0,0E0,0E0,0E0,0E0,0E0,0E0,0E0,0E0,0E0,0E0,0E0,0E0,0E0,0E0,0E0],"parents":[2147483647,0,0,1,1,2,2,3,3,4,4,5,5,6,6,7,7,8,8,9,9,10,10,11,11,14,14,15,15,16,16,17,17,18,18,19,19,20,20,21,21,22,22,24,24,27,27,29,29,30,30,31,31,32,32,33,33,34,34,35,35,36,36,38,38,39,39,40,40,41,41,42,42,43,43],"right_children":[2,4,6,8,10,12,14,16,18,20,22,24,-1,-1,26,28,30,32,34,36,38,40,42,-1,44,-1,-1,46,-1,48,50,52,54,56,58,60,62,-1,64,66,68,70,72,74,-1,-1,-1,-1,-1,-1,-1,-1,-1,-1,-1,-1,-1,-1,-1,-1,-1,-1,-1,-1,-1,-1,-1,-1,-1,-1,-1,-1,-1,-1,-1],"split_conditions":[1.4957224E3,8E0,1.23E2,2.4E1,2.4E1,3.4E2,1E0,6E0,1.23E2,3E0,3.7851315E6,2.27E2,-1.0005456E-1,1.1720264E-1,1.85E1,1.23E2,3.4641016E0,1.4011E4,8E1,3.4083192E0,2.4E1,9.77E7,6.935436E6,-9.410199E-2,3.1088E4,-1.2690181E-2,-1.0967585E-1,2.51E2,-1.1017068E-1,2.51E2,1.23E2,7.5E1,2.35E2,2.8E1,1E0,2.4E1,2.35E2,-1.0956707E-1,2.8E1,6E0,2E0,7E0,4.3141715E6,1.3E1,-6.761115E-2,-1.5423773E-1,1.0685293E-1,-1.2877893E-1,1.3829757E-1,4.2147506E-2,-1.10115305E-1,-3.4437753E-2,2.0343263E-1,1.5268104E-1,-1.11404695E-1,4.8601963E-2,-1.10509984E-1,-1.10732794E-1,3.9035186E-2,-1.0271826E-1,1.3949178E-1,1.2329604E-1,-1.10026054E-1,1.4029531E-1,-1.0749989E-1,2.2191048E-1,-1.07065454E-1,9.212041E-1,-2.2501921E-2,-2.2539122E-2,-1.0766844E-1,1.7196362E-1,1.415684E-1,1.4181158E-1,-1.4260528E-2],"split_indices":[13,52,0,35,0,67,46,39,0,24,71,67,0,0,9,0,9,24,34,37,69,76,29,0,66,0,0,66,0,66,0,21,66,35,46,69,66,0,2,40,70,3,71,3,0,0,0,0,0,0,0,0,0,0,0,0,0,0,0,0,0,0,0,0,0,0,0,0,0,0,0,0,0,0,0],"split_type":[0,0,0,0,0,0,0,0,0,0,0,0,0,0,0,0,0,0,0,0,0,0,0,0,0,0,0,0,0,0,0,0,0,0,0,0,0,0,0,0,0,0,0,0,0,0,0,0,0,0,0,0,0,0,0,0,0,0,0,0,0,0,0,0,0,0,0,0,0,0,0,0,0,0,0],"sum_hessian":[2.840091E5,2.3845889E5,4.55502E4,9.26217E4,1.4583719E5,4.534771E4,2.0248792E2,6.79171E4,2.4704602E4,2.89537E3,1.4294181E5,4.5338652E4,9.058144E0,2.3960016E0,2.0009192E2,2.7786697E4,4.0130406E4,8.90409E3,1.5800511E4,7.170199E2,2.17835E3,1.4237317E5,5.686472E2,5.4308786E0,4.5333223E4,1.0589124E0,1.99033E2,1.9077865E4,8.708832E3,3.964535E4,4.8505576E2,4.809211E3,4.094879E3,1.4832374E4,9.6813715E2,8.053837E1,6.364815E2,1.6439096E2,2.0139592E3,1.4128598E5,1.0871895E3,1.947474E2,3.7389978E2,4.5332113E4,1.1078383E0,1.3932446E3,1.7684621E4,2.4111967E2,3.940423E4,1.8826162E1,4.6622958E2,2.8411582E3,1.9680527E3,3.0458072E2,3.790298E3,7.550687E1,1.4756867E4,4.7936234E2,4.8877478E2,1.28480015E1,6.769037E1,3.2767212E0,6.3320483E2,1.9763639E3,3.7595337E1,1.141885E2,1.411718E5,2.952365E1,1.0576658E3,7.002225E0,1.8774518E2,2.364607E1,3.5025372E2,4.5331086E4,1.0274028E0],"tree_param":{"num_deleted":"0","num_feature":"78","num_nodes":"75","size_leaf_vector":"1"}},{"base_weights":[-1.4150283E-1,-4.304333E-1,1.3514901E0,4.483632E-1,-1.0045334E0,1.3619428E0,-1.0474087E0,8.5117066E-1,-6.845903E-1,6.478075E-1,-1.0385991E0,1.3624256E0,-9.827962E-2,1.1114216E-1,-1.0808262E0,2.4073847E-1,1.2806145E0,-9.311655E-2,-1.0457364E0,-1.08948186E-1,1.0579692E0,-1.0506291E0,-1.3747942E-1,-9.211045E-2,1.3627172E0,-1.08601786E-1,-1.4639387E-2,8.081131E-1,-1.0910729E-1,1.308101E0,-1.0262402E0,5.243101E-1,-9.041008E-1,-1.0850623E0,-2.0563604E-1,-4.128571E-1,1.3660246E0,-1.0571685E0,2.1680494E-1,1.5968009E0,-1.0068682E0,1.362783E0,-6.544035E-2,1.6288696E-2,1.4567138E-1,1.3242692E-1,-1.6027237E-1,-1.074636E-1,9.1251075E-2,-3.719775E-2,1.9427131E-1,1.4533292E-1,-1.10087804E-1,-2.3772858E-2,-1.0890478E-1,-1.11241534E-1,6.284072E-2,1.3468842E-1,-1.12412326E-1,1.366522E-1,2.6244149E-2,1.974954E-1,-1.0599082E-1,5.8324516E-1,-4.950627E-2,9.0201503E-1,1.5376274E-1,-1.0969552E-1,4.0230462E-1,1.362822E-1,-1.3600627E-2],"categories":[],"categories_nodes":[],"categories_segments":[],"categories_sizes":[],"default_left":[0,0,0,0,0,0,0,0,0,0,0,0,0,0,0,0,0,0,0,0,0,0,0,0,0,0,0,0,0,0,0,0,0,0,0,0,0,0,0,0,0,0,0,0,0,0,0,0,0,0,0,0,0,0,0,0,0,0,0,0,0,0,0,0,0,0,0,0,0,0,0],"id":10,"left_children":[1,3,5,7,9,11,13,15,17,19,21,23,-1,-1,25,27,29,31,33,-1,35,37,39,-1,41,-1,-1,43,-1,45,47,49,51,53,55,57,59,61,63,65,67,69,-1,-1,-1,-1,-1,-1,-1,-1,-1,-1,-1,-1,-1,-1,-1,-1,-1,-1,-1,-1,-1,-1,-1,-1,-1,-1,-1,-1,-1],"loss_changes":[1.13853875E5,1.115687E5,1.0745156E3,3.987833E4,7.5296562E3,4.9578125E1,1.463623E1,1.6898508E4,4.895705E3,1.9269062E3,1.4205781E3,2.9617188E1,0E0,0E0,7.331543E-1,2.0118193E4,2.4007695E3,4.3517983E3,4.69917E2,0E0,9.914265E2,1.0721406E3,2.6066008E3,0E0,6.5390625E0,0E0,0E0,7.813078E3,0E0,1.7620781E3,4.2840485E1,6.273871E3,1.7442568E3,4.5646484E1,4.829003E2,4.7648346E2,6.3378906E-1,1.0709062E3,2.6600276E3,2.3971301E2,5.2616113E2,2.6875E0,0E0,0E0,0E0,0E0,0E0,0E0,0E0,0E0,0E0,0E0,0E0,0E0,0E0,0E0,0E0,0E0,0E0,0E0,0E0,0E0,0E0,0E0,0E0,0E0,0E0,0E0,0E0,0E0,0E0],"parents":[2147483647,0,0,1,1,2,2,3,3,4,4,5,5,6,6,7,7,8,8,9,9,10,10,11,11,14,14,15,15,16,16,17,17,18,18,20,20,21,21,22,22,24,24,27,27,29,29,30,30,31,31,32,32,33,33,34,34,35,35,36,36,37,37,38,38,39,39,40,40,41,41],"right_children":[2,4,6,8,10,12,14,16,18,20,22,24,-1,-1,26,28,30,32,34,-1,36,38,40,-1,42,-1,-1,44,-1,46,48,50,52,54,56,58,60,62,64,66,68,70,-1,-1,-1,-1,-1,-1,-1,-1,-1,-1,-1,-1,-1,-1,-1,-1,-1,-1,-1,-1,-1,-1,-1,-1,-1,-1,-1,-1,-1],"split_conditions":[1.4957224E3,8E0,1.23E2,2.4E1,2.4E1,3.4E2,1E0,6E0,3.89E2,2.4E1,2.64E7,2.27E2,-9.827962E-2,1.1114216E-1,2.244827E3,1.23E2,3.4641016E0,1.4011E4,1.8141E5,-1.08948186E-1,2E0,1.2296246E3,7E0,-9.211045E-2,3.1088E4,-1.08601786E-1,-1.4639387E-2,2E5,-1.0910729E-1,5.445E3,9.2750194E5,1.39E2,2.35E2,2.8E1,5.54E2,3.4083192E0,1.61E2,6E0,6.4E1,6.0699464E7,1.1896296E3,1.3E1,-6.544035E-2,1.6288696E-2,1.4567138E-1,1.3242692E-1,-1.6027237E-1,-1.074636E-1,9.1251075E-2,-3.719775E-2,1.9427131E-1,1.4533292E-1,-1.10087804E-1,-2.3772858E-2,-1.0890478E-1,-1.11241534E-1,6.284072E-2,1.3468842E-1,-1.12412326E-1,1.366522E-1,2.6244149E-2,1.974954E-1,-1.0599082E-1,5.8324516E-1,-4.950627E-2,9.0201503E-1,1.5376274E-1,-1.0969552E-1,4.0230462E-1,1.362822E-1,-1.3600627E-2],"split_indices":[13,52,0,35,0,67,46,39,0,69,27,67,0,0,41,0,9,24,24,0,19,13,10,0,66,0,0,36,0,19,22,21,66,35,0,37,19,40,4,1,12,3,0,0,0,0,0,0,0,0,0,0,0,0,0,0,0,0,0,0,0,0,0,0,0,0,0,0,0,0,0],"split_type":[0,0,0,0,0,0,0,0,0,0,0,0,0,0,0,0,0,0,0,0,0,0,0,0,0,0,0,0,0,0,0,0,0,0,0,0,0,0,0,0,0,0,0,0,0,0,0,0,0,0,0,0,0,0,0,0,0,0,0,0,0,0,0,0,0,0,0,0,0,0,0],"sum_hessian":[2.6393247E5,2.2113766E5,4.2794805E4,8.7380805E4,1.3375686E5,4.260958E4,1.8522812E2,6.4462293E4,2.2918514E4,2.7015486E3,1.31055305E5,4.2601227E4,8.35383E0,2.3317833E0,1.8289633E2,2.6622021E4,3.784027E4,8.689077E3,1.4229437E4,5.156776E2,2.1858708E3,1.29328586E5,1.7267195E3,5.035475E0,4.2596188E4,1.8172444E2,1.1718905E0,1.866907E4,7.9529526E3,3.7395133E4,4.451371E2,4.933448E3,3.7556287E3,1.3592852E4,6.365851E2,3.7847638E2,1.8073945E3,1.286649E5,6.6368445E2,5.7628796E2,1.1504315E3,4.2595125E4,1.0654898E0,9.359508E3,9.309562E3,3.718911E4,2.0602098E2,4.347309E2,1.0406196E1,3.023585E3,1.9098632E3,2.8884326E2,3.4667854E3,6.391853E1,1.3528934E4,3.0483356E2,3.3175153E2,1.0868514E2,2.6979123E2,1.8063423E3,1.0522726E0,1.1549816E2,1.2854941E5,7.385758E1,5.8982684E2,3.359829E0,5.729281E2,1.1309576E3,1.947381E1,4.2594105E4,1.0185132E0],"tree_param":{"num_deleted":"0","num_feature":"78","num_nodes":"71","size_leaf_vector":"1"}},{"base_weights":[-1.3869101E-1,-4.2085657E-1,1.3057518E0,4.2940572E-1,-9.9166054E-1,1.3157294E0,-1.0359735E0,8.116733E-1,-6.6783047E-1,6.293903E-1,-1.0255618E0,1.3162613E0,-7.111143E-1,1.0579095E-1,-1.0704176E0,2.2613506E-1,1.2314476E0,-8.9519486E-2,-1.0321989E0,-1.0798452E-1,1.0241294E0,-1.0376238E0,-1.3557315E-1,-9.017567E-2,1.3165439E0,-9.993767E-2,4.8274E-2,-1.1143095E-2,-1.0757935E-1,7.469556E-1,-1.0816331E-1,-1.17234E0,1.258614E0,4.8907796E-1,-8.92945E-1,-1.074328E0,-1.9203529E-1,-4.0576997E-1,1.3189619E0,-1.0445671E0,1.8087277E-1,1.5108765E0,-9.929991E-1,1.3165776E0,2.2723984E-2,-1.2170088E-1,9.473396E-2,2.349497E-1,-1.2522776E-1,1.2758505E-1,-1.3825573E-1,-3.4216512E-2,1.8451187E-1,1.3917015E-1,-1.089794E-1,-2.1770088E-2,-1.0786761E-1,-1.0956502E-1,5.461827E-2,1.2989521E-1,-1.11166835E-1,1.3194723E-1,2.5033042E-2,-1.0464672E-1,3.36185E-1,2.4854629E-1,-1.13899946E-1,4.634931E-1,1.4647815E-1,-1.0867111E-1,3.038846E-1,1.3166016E-1,3.1472947E-2],"categories":[],"categories_nodes":[],"categories_segments":[],"categories_sizes":[],"default_left":[0,0,0,0,0,0,0,0,0,0,0,0,0,0,0,0,0,0,0,0,0,0,0,0,0,0,0,0,0,0,0,0,0,0,0,0,0,0,0,0,0,0,0,0,0,0,0,0,0,0,0,0,0,0,0,0,0,0,0,0,0,0,0,0,0,0,0,0,0,0,0,0,0],"id":11,"left_children":[1,3,5,7,9,11,13,15,17,19,21,23,25,-1,27,29,31,33,35,-1,37,39,41,-1,43,-1,-1,-1,-1,45,-1,47,49,51,53,55,57,59,61,63,65,67,69,71,-1,-1,-1,-1,-1,-1,-1,-1,-1,-1,-1,-1,-1,-1,-1,-1,-1,-1,-1,-1,-1,-1,-1,-1,-1,-1,-1,-1,-1],"loss_changes":[9.9780016E4,9.940007E4,9.3614844E2,3.450608E4,6.7350234E3,4.3867188E1,1.3415009E1,1.4995867E4,4.478959E3,1.6951875E3,1.2883906E3,2.6171875E1,4.302436E0,0E0,7.4645996E-1,1.7353348E4,2.322E3,3.8202366E3,4.6134766E2,0E0,8.606848E2,1.0021328E3,2.268955E3,0E0,1.1484375E0,0E0,0E0,0E0,0E0,7.1719873E3,0E0,1.14885925E2,1.6014414E3,5.385912E3,1.5488232E3,4.60166E1,4.1676074E2,4.2206775E2,5.92041E-1,9.894375E2,2.0464763E3,7.247266E1,4.025808E2,5.46875E-1,0E0,0E0,0E0,0E0,0E0,0E0,0E0,0E0,0E0,0E0,0E0,0E0,0E0,0E0,0E0,0E0,0E0,0E0,0E0,0E0,0E0,0E0,0E0,0E0,0E0,0E0,0E0,0E0,0E0],"parents":[2147483647,0,0,1,1,2,2,3,3,4,4,5,5,6,6,7,7,8,8,9,9,10,10,11,11,12,12,14,14,15,15,16,16,17,17,18,18,20,20,21,21,22,22,24,24,29,29,31,31,32,32,33,33,34,34,35,35,36,36,37,37,38,38,39,39,40,40,41,41,42,42,43,43],"right_children":[2,4,6,8,10,12,14,16,18,20,22,24,26,-1,28,30,32,34,36,-1,38,40,42,-1,44,-1,-1,-1,-1,46,-1,48,50,52,54,56,58,60,62,64,66,68,70,72,-1,-1,-1,-1,-1,-1,-1,-1,-1,-1,-1,-1,-1,-1,-1,-1,-1,-1,-1,-1,-1,-1,-1,-1,-1,-1,-1,-1,-1],"split_conditions":[1.4957224E3,8E0,1.23E2,2.4E1,2.4E1,2.45E2,1E0,6E0,3.89E2,2.4E1,2.64E7,2.27E2,1.4E2,1.0579095E-1,2.012461E1,1.23E2,2.51E2,1.4011E4,1.8141E5,-1.0798452E-1,2E0,1.2296246E3,7E0,-9.017567E-2,2.43E2,-9.993767E-2,4.8274E-2,-1.1143095E-2,-1.0757935E-1,3.1E1,-1.0816331E-1,1.23E2,1.71E3,1.39E2,2.35E2,2.8E1,5.54E2,3.4083192E0,1.61E2,3.56E2,1.23E2,6.0699464E7,1.1896296E3,3.04E2,2.2723984E-2,-1.2170088E-1,9.473396E-2,2.349497E-1,-1.2522776E-1,1.2758505E-1,-1.3825573E-1,-3.4216512E-2,1.8451187E-1,1.3917015E-1,-1.089794E-1,-2.1770088E-2,-1.0786761E-1,-1.0956502E-1,5.461827E-2,1.2989521E-1,-1.11166835E-1,1.3194723E-1,2.5033042E-2,-1.0464672E-1,3.36185E-1,2.4854629E-1,-1.13899946E-1,4.634931E-1,1.4647815E-1,-1.0867111E-1,3.038846E-1,1.3166016E-1,3.1472947E-2],"split_indices":[13,52,0,35,0,67,46,39,0,69,27,67,8,0,9,0,66,24,24,0,19,13,10,0,67,0,0,0,0,69,0,0,19,21,66,35,0,37,19,38,0,1,12,35,0,0,0,0,0,0,0,0,0,0,0,0,0,0,0,0,0,0,0,0,0,0,0,0,0,0,0,0,0],"split_type":[0,0,0,0,0,0,0,0,0,0,0,0,0,0,0,0,0,0,0,0,0,0,0,0,0,0,0,0,0,0,0,0,0,0,0,0,0,0,0,0,0,0,0,0,0,0,0,0,0,0,0,0,0,0,0,0,0,0,0,0,0,0,0,0,0,0,0,0,0,0,0,0,0],"sum_hessian":[2.4481331E5,2.0480605E5,4.0007254E4,8.2265164E4,1.2254088E5,3.983795E4,1.6930348E2,6.1010055E4,2.1255111E4,2.509859E3,1.2003102E5,3.982785E4,1.0100017E1,2.2590668E0,1.6704442E2,2.5475762E4,3.5534293E4,8.216098E3,1.3039014E4,4.7056384E2,2.039295E3,1.1842585E5,1.6051776E3,4.6694875E0,3.982318E4,8.266843E0,1.8331736E0,1.0523118E0,1.659921E2,1.8220035E4,7.255726E3,3.9663016E2,3.5137664E4,4.776575E3,3.4395225E3,1.2416143E4,6.22871E2,3.485409E2,1.6907542E3,1.17754984E5,6.708618E2,5.494152E2,1.0557623E3,3.9821746E4,1.4359212E0,1.686414E3,1.6533621E4,8.172669E0,3.884575E2,3.491035E4,2.2731184E2,2.961776E3,1.8147994E3,2.7236456E2,3.167158E3,6.296313E1,1.235318E4,2.7984402E2,3.4302695E2,1.01816696E2,2.467242E2,1.6897124E3,1.0417916E0,1.1770499E5,4.9992737E1,2.4397722E2,4.2688458E2,6.54118E0,5.428741E2,1.0324946E3,2.3267738E1,3.9820477E4,1.2699641E0],"tree_param":{"num_deleted":"0","num_feature":"78","num_nodes":"73","size_leaf_vector":"1"}},{"base_weights":[-1.3616845E-1,-4.1211736E-1,1.2670947E0,4.1255152E-1,-9.793471E-1,1.2766792E0,-1.0254815E0,7.775023E-1,-6.5143335E-1,6.135832E-1,-1.0130467E0,1.2771351E0,-9.512965E-2,1.01014376E-1,-1.0609932E0,-1.2745717E0,8.9572483E-1,-6.942806E-2,-1.0091525E0,-1.07123554E-1,9.952888E-1,-1.0228928E0,1.0173804E-1,-8.828611E-2,1.2774113E0,-1.0671746E-1,-9.475528E-3,-9.8724276E-1,-1.6289517E0,9.553789E-1,-1.8664535E0,8.6330396E-1,-5.8510584E-1,-1.0654032E0,-2.655606E-1,-3.9926177E-1,1.2791842E0,-1.0295472E0,5.526603E-1,2.1081963E0,-7.497817E-1,1.277482E0,-6.4414926E-2,-1.0851468E-1,1.008588E-1,-1.7269836E-1,-1.1023015E-1,5.1921915E-2,1.2281048E-1,-2.4940665E-1,-1.2036897E-1,1.3130912E-1,-5.2862365E-2,-1.0108053E-1,1.1420993E-3,3.9066873E-2,-1.0755004E-1,-1.0802864E-1,3.6073003E-2,1.257994E-1,-1.0997834E-1,1.2797725E-1,2.1581063E-2,1.8877041E-1,-1.0326662E-1,1.2974425E-1,-1.0285299E-1,1.4384405E-1,5.573162E-1,-1.08195305E-1,3.1576177E-1,1.2775557E-1,3.588857E-2],"categories":[],"categories_nodes":[],"categories_segments":[],"categories_sizes":[],"default_left":[0,0,0,0,0,0,0,0,0,0,0,0,0,0,0,0,0,0,0,0,0,0,0,0,0,0,0,0,0,0,0,0,0,0,0,0,0,0,0,0,0,0,0,0,0,0,0,0,0,0,0,0,0,0,0,0,0,0,0,0,0,0,0,0,0,0,0,0,0,0,0,0,0],"id":12,"left_children":[1,3,5,7,9,11,13,15,17,19,21,23,-1,-1,25,27,29,31,33,-1,35,37,39,-1,41,-1,-1,43,45,47,49,51,53,55,57,59,61,63,65,67,69,71,-1,-1,-1,-1,-1,-1,-1,-1,-1,-1,-1,-1,-1,-1,-1,-1,-1,-1,-1,-1,-1,-1,-1,-1,-1,-1,-1,-1,-1,-1,-1],"loss_changes":[8.776931E4,8.860297E4,8.197539E2,2.997368E4,6.0248516E3,3.8898438E1,1.2321671E1,1.394498E4,4.1044814E3,1.4966626E3,1.2063906E3,2.3242188E1,0E0,0E0,8.153534E-1,3.1723438E2,8.95666E3,3.6107427E3,5.1043848E2,0E0,7.5136707E2,1.1426875E3,1.6470223E3,0E0,5.8671875E0,0E0,0E0,3.3948645E2,7.040381E1,6.3273516E3,4.7502832E2,1.6740051E3,1.2275992E3,1.6730469E2,4.3922797E2,3.7468256E2,7.0996094E-1,9.889531E2,5.416487E2,6.584918E2,8.8193787E2,2.046875E0,0E0,0E0,0E0,0E0,0E0,0E0,0E0,0E0,0E0,0E0,0E0,0E0,0E0,0E0,0E0,0E0,0E0,0E0,0E0,0E0,0E0,0E0,0E0,0E0,0E0,0E0,0E0,0E0,0E0,0E0,0E0],"parents":[2147483647,0,0,1,1,2,2,3,3,4,4,5,5,6,6,7,7,8,8,9,9,10,10,11,11,14,14,15,15,16,16,17,17,18,18,20,20,21,21,22,22,24,24,27,27,28,28,29,29,30,30,31,31,32,32,33,33,34,34,35,35,36,36,37,37,38,38,39,39,40,40,41,41],"right_children":[2,4,6,8,10,12,14,16,18,20,22,24,-1,-1,26,28,30,32,34,-1,36,38,40,-1,42,-1,-1,44,46,48,50,52,54,56,58,60,62,64,66,68,70,72,-1,-1,-1,-1,-1,-1,-1,-1,-1,-1,-1,-1,-1,-1,-1,-1,-1,-1,-1,-1,-1,-1,-1,-1,-1,-1,-1,-1,-1,-1,-1],"split_conditions":[1.4957224E3,8E0,1.23E2,2.4E1,2.4E1,3.4E2,1E0,2.51E2,1.23E2,2.4E1,9.77E7,2.27E2,-9.512965E-2,1.01014376E-1,2.244827E3,2.29E2,3.1088E4,1.3938238E4,8E1,-1.07123554E-1,2E0,3.7851315E6,7E0,-8.828611E-2,3.1088E4,-1.0671746E-1,-9.475528E-3,2.11E2,1.23E2,6E0,1.23E2,2.83E2,4E1,2.8E1,1E0,3.4083192E0,2.488E3,6E0,6E0,2E0,1.087358E3,2.43E2,-6.4414926E-2,-1.0851468E-1,1.008588E-1,-1.7269836E-1,-1.1023015E-1,5.1921915E-2,1.2281048E-1,-2.4940665E-1,-1.2036897E-1,1.3130912E-1,-5.2862365E-2,-1.0108053E-1,1.1420993E-3,3.9066873E-2,-1.0755004E-1,-1.0802864E-1,3.6073003E-2,1.257994E-1,-1.0997834E-1,1.2797725E-1,2.1581063E-2,1.8877041E-1,-1.0326662E-1,1.2974425E-1,-1.0285299E-1,1.4384405E-1,5.573162E-1,-1.08195305E-1,3.1576177E-1,1.2775557E-1,3.588857E-2],"split_indices":[13,52,0,35,0,67,46,66,0,69,76,67,0,0,41,66,66,16,34,0,19,71,10,0,66,0,0,66,0,39,0,66,35,35,46,37,4,40,3,11,13,67,0,0,0,0,0,0,0,0,0,0,0,0,0,0,0,0,0,0,0,0,0,0,0,0,0,0,0,0,0,0,0],"split_type":[0,0,0,0,0,0,0,0,0,0,0,0,0,0,0,0,0,0,0,0,0,0,0,0,0,0,0,0,0,0,0,0,0,0,0,0,0,0,0,0,0,0,0,0,0,0,0,0,0,0,0,0,0,0,0,0,0,0,0,0,0,0,0,0,0,0,0,0,0,0,0,0,0],"sum_hessian":[2.2665766E5,1.8941106E5,3.7246598E4,7.718934E4,1.1222171E5,3.7091973E4,1.5462497E2,5.7475355E4,1.9713992E4,2.3245876E3,1.09897125E5,3.708481E4,7.1635375E0,2.1806223E0,1.5244435E2,3.1303206E3,5.4345035E4,7.5048594E3,1.2209133E4,4.290385E2,1.8955492E3,1.08935055E5,9.6206946E2,4.3313265E0,3.708048E4,1.513715E2,1.0728469E0,1.730792E3,1.3995284E3,5.319681E4,1.1482241E3,2.6717175E3,4.833142E3,1.1350096E4,8.59037E2,3.2054794E2,1.5750012E3,1.0847724E5,4.5781012E2,2.862039E2,6.758656E2,3.707945E4,1.0305277E0,1.6502943E3,8.049774E1,1.1779778E3,2.2155063E2,2.0467254E4,3.2729557E4,5.883321E2,5.59892E2,2.0192683E3,6.5244916E2,2.8200063E3,2.0131356E3,7.790531E1,1.127219E4,3.7303726E2,4.8599973E2,9.5001884E1,2.2554605E2,1.5739269E3,1.0742863E0,1.15206955E2,1.0836204E5,3.1134015E2,1.4646996E2,2.4102956E2,4.517435E1,6.235778E2,5.2287777E1,3.707609E4,3.3587942E0],"tree_param":{"num_deleted":"0","num_feature":"78","num_nodes":"73","size_leaf_vector":"1"}},{"base_weights":[-1.3306001E-1,-4.0126047E-1,1.234138E0,3.909923E-1,-9.677476E-1,1.2433941E0,-1.0156981E0,7.301246E-1,-6.4012283E-1,5.9991795E-1,-1.0012271E0,1.2439084E0,-6.6475266E-1,9.6708916E-2,-1.0523193E0,1.9240838E-1,1.143157E0,-6.537844E-2,-1.0056448E0,-1.0635215E-1,9.705083E-1,-1.009949E0,3.2497406E-1,-8.643251E-2,1.2441798E0,-9.7146235E-2,4.6712767E-2,-1.0590515E-1,-8.39168E-3,6.800265E-1,-1.07439555E-1,1.1775842E0,-1.0268122E0,4.9890643E-1,-8.637722E-1,-1.0672982E0,-2.4776775E-1,-3.9321816E-1,1.2452921E0,-1.0165572E0,5.3986853E-1,2.0789864E0,-1.11103974E-1,1.2442163E0,2.0329168E-2,1.2417258E-1,1.2009997E-5,-1.2097011E-1,1.19826436E-1,-1.0520027E-1,1.4661644E-1,1.23797216E-1,-1.0026487E-1,1.354433E-1,-1.0766818E-1,-1.069377E-1,1.9751881E-1,-1.071673E-1,3.1814408E-2,1.2225924E-1,-1.08830206E-1,1.24592185E-1,1.8980602E-2,-1.0221436E-1,6.754309E-2,-9.890243E-2,1.2731193E-1,2.8533986E-1,-1.12809256E-1,1.2442441E-1,2.8066559E-2],"categories":[],"categories_nodes":[],"categories_segments":[],"categories_sizes":[],"default_left":[0,0,0,0,0,0,0,0,0,0,0,0,0,0,0,0,0,0,0,0,0,0,0,0,0,0,0,0,0,0,0,0,0,0,0,0,0,0,0,0,0,0,0,0,0,0,0,0,0,0,0,0,0,0,0,0,0,0,0,0,0,0,0,0,0,0,0,0,0,0,0],"id":13,"left_children":[1,3,5,7,9,11,13,15,17,19,21,23,25,-1,27,29,31,33,35,-1,37,39,41,-1,43,-1,-1,-1,-1,45,-1,47,49,51,53,55,57,59,61,63,65,67,-1,69,-1,-1,-1,-1,-1,-1,-1,-1,-1,-1,-1,-1,-1,-1,-1,-1,-1,-1,-1,-1,-1,-1,-1,-1,-1,-1,-1],"loss_changes":[7.726418E4,7.9058766E4,7.20875E2,2.5682438E4,5.391422E3,3.4601562E1,1.1338455E1,1.2274203E4,3.8187002E3,1.3253684E3,1.1635703E3,2.0765625E1,3.899169E0,0E0,8.240814E-1,1.4832513E4,2.3363047E3,3.1844724E3,5.1891016E2,0E0,6.590482E2,1.0237422E3,1.6591995E3,0E0,1.0507812E0,0E0,0E0,0E0,0E0,6.6213696E3,0E0,1.5205156E3,3.2231995E1,4.597217E3,1.383812E3,6.709473E1,3.9068768E2,3.331975E2,7.36084E-1,9.410469E2,4.7753027E2,7.3952625E2,0E0,5.703125E-1,0E0,0E0,0E0,0E0,0E0,0E0,0E0,0E0,0E0,0E0,0E0,0E0,0E0,0E0,0E0,0E0,0E0,0E0,0E0,0E0,0E0,0E0,0E0,0E0,0E0,0E0,0E0],"parents":[2147483647,0,0,1,1,2,2,3,3,4,4,5,5,6,6,7,7,8,8,9,9,10,10,11,11,12,12,14,14,15,15,16,16,17,17,18,18,20,20,21,21,22,22,24,24,29,29,31,31,32,32,33,33,34,34,35,35,36,36,37,37,38,38,39,39,40,40,41,41,43,43],"right_children":[2,4,6,8,10,12,14,16,18,20,22,24,26,-1,28,30,32,34,36,-1,38,40,42,-1,44,-1,-1,-1,-1,46,-1,48,50,52,54,56,58,60,62,64,66,68,-1,70,-1,-1,-1,-1,-1,-1,-1,-1,-1,-1,-1,-1,-1,-1,-1,-1,-1,-1,-1,-1,-1,-1,-1,-1,-1,-1,-1],"split_conditions":[1.4957224E3,8E0,1.23E2,2.8E1,2.4E1,2.45E2,1E0,6E0,1.23E2,2.4E1,1.2296246E3,2.27E2,1.4E2,9.6708916E-2,1.1880432E8,1.23E2,3.4641016E0,1.4011E4,8E1,-1.0635215E-1,2E0,3.7851315E6,1.23E2,-8.643251E-2,2.43E2,-9.7146235E-2,4.6712767E-2,-1.0590515E-1,-8.39168E-3,1.7E1,-1.07439555E-1,2.51E2,5E1,1.61E2,2.35E2,6.6E7,1E0,3.4083192E0,2.937E3,5E7,6.935436E6,1E1,-1.11103974E-1,2E1,2.0329168E-2,1.2417258E-1,1.2009997E-5,-1.2097011E-1,1.19826436E-1,-1.0520027E-1,1.4661644E-1,1.23797216E-1,-1.0026487E-1,1.354433E-1,-1.0766818E-1,-1.069377E-1,1.9751881E-1,-1.071673E-1,3.1814408E-2,1.2225924E-1,-1.08830206E-1,1.24592185E-1,1.8980602E-2,-1.0221436E-1,6.754309E-2,-9.890243E-2,1.2731193E-1,2.8533986E-1,-1.12809256E-1,1.2442441E-1,2.8066559E-2],"split_indices":[13,52,0,35,0,67,46,39,0,69,13,67,8,0,1,0,9,24,34,0,19,71,0,0,67,0,0,0,0,19,0,66,70,19,66,26,46,37,5,27,29,3,0,2,0,0,0,0,0,0,0,0,0,0,0,0,0,0,0,0,0,0,0,0,0,0,0,0,0,0,0],"split_type":[0,0,0,0,0,0,0,0,0,0,0,0,0,0,0,0,0,0,0,0,0,0,0,0,0,0,0,0,0,0,0,0,0,0,0,0,0,0,0,0,0,0,0,0,0,0,0,0,0,0,0,0,0,0,0,0,0,0,0,0,0,0,0,0,0,0,0,0,0,0,0],"sum_hessian":[2.1070866E5,1.7615366E5,3.4555E4,7.344228E4,1.0271138E5,3.4413867E4,1.4113557E2,5.526575E4,1.8176531E4,2.147311E3,1.0056407E5,3.440494E4,8.924487E0,2.098678E0,1.390369E2,2.4009662E4,3.1256088E4,7.066457E3,1.1110075E4,3.9088898E2,1.756422E3,9.990726E4,6.568128E2,4.0193324E0,3.440092E4,7.1332827E0,1.7912046E0,1.3798404E2,1.0528607E0,1.7336832E4,6.6728296E3,3.0768395E4,4.8769186E2,4.140459E3,2.9259983E3,1.0273884E4,8.36191E2,2.9448566E2,1.4619364E3,9.948342E4,4.2383942E2,2.954676E2,3.613452E2,3.439952E4,1.4017125E0,9.49324E3,7.8435923E3,2.6375186E2,3.0504643E4,4.8338547E2,4.3063974E0,2.7748518E3,1.3656069E3,2.5578033E2,2.6702178E3,1.0267518E4,6.3664703E0,3.4012003E2,4.9607098E2,8.8348785E1,2.0613687E2,1.4608843E3,1.0521032E0,9.915643E4,3.2698752E2,1.3727014E2,2.8656927E2,2.3808705E2,5.7380527E1,3.439824E4,1.2822305E0],"tree_param":{"num_deleted":"0","num_feature":"78","num_nodes":"71","size_leaf_vector":"1"}},{"base_weights":[-1.3066629E-1,-3.9294702E-1,1.2058325E0,3.7606126E-1,-9.5632195E-1,1.2148119E0,-1.0065483E0,7.007215E-1,-6.247766E-1,5.880121E-1,-9.8954016E-1,1.2152537E0,-9.214794E-2,-1.0517227E-1,6.7584753E-1,-1.228191E0,8.1264853E-1,-6.441333E-2,-9.9369353E-1,-1.0565902E-1,9.49033E-1,-1.0001485E0,1.18264295E-1,-8.4607616E-2,1.215522E0,-3.0350482E-2,1.1173322E-1,-9.6060926E-1,-1.5349771E0,8.70262E-1,-1.8085938E0,4.6110427E-1,-8.552085E-1,-1.0600939E0,-2.3106194E-1,-3.8754413E-1,1.2161714E0,-1.0067465E0,5.264369E-1,1.8714097E0,-7.3094463E-1,1.215595E0,-2.867773E-2,-1.067824E-1,9.446373E-2,-1.6073607E-1,-1.0814705E-1,4.578465E-2,1.1522212E-1,-2.280675E-1,-1.2140147E-1,1.1220329E-1,-9.765568E-2,1.3077907E-1,-1.0683048E-1,-1.06224574E-1,1.7825572E-1,-1.0639286E-1,2.8099317E-2,1.1916647E-1,-1.0770845E-1,1.2168453E-1,1.738461E-2,1.8132885E-1,-1.01032846E-1,1.2271744E-1,-1.0055357E-1,1.3295485E-1,3.9302406E-1,-1.0676886E-1,2.2273849E-1,1.2156602E-1,3.2534875E-2],"categories":[],"categories_nodes":[],"categories_segments":[],"categories_sizes":[],"default_left":[0,0,0,0,0,0,0,0,0,0,0,0,0,0,0,0,0,0,0,0,0,0,0,0,0,0,0,0,0,0,0,0,0,0,0,0,0,0,0,0,0,0,0,0,0,0,0,0,0,0,0,0,0,0,0,0,0,0,0,0,0,0,0,0,0,0,0,0,0,0,0,0,0],"id":14,"left_children":[1,3,5,7,9,11,13,15,17,19,21,23,-1,-1,25,27,29,31,33,-1,35,37,39,-1,41,-1,-1,43,45,47,49,51,53,55,57,59,61,63,65,67,69,71,-1,-1,-1,-1,-1,-1,-1,-1,-1,-1,-1,-1,-1,-1,-1,-1,-1,-1,-1,-1,-1,-1,-1,-1,-1,-1,-1,-1,-1,-1,-1],"loss_changes":[6.829816E4,7.0564086E4,6.3621094E2,2.2378305E4,4.8230938E3,3.1160156E1,1.057222E1,1.1227953E4,3.487224E3,1.1766564E3,1.0816094E3,1.8628906E1,0E0,0E0,2.0693388E0,2.326748E2,7.4241504E3,2.7838997E3,5.148574E2,0E0,5.803922E2,9.186953E2,1.3022487E3,0E0,3.8398438E0,0E0,0E0,3.1276392E2,4.1827637E1,5.592008E3,2.940271E2,3.825175E3,1.2340984E3,5.9131836E1,3.4830096E2,2.9671875E2,7.39624E-1,9.186094E2,4.2306104E2,3.1318652E2,5.8950653E2,1.453125E0,0E0,0E0,0E0,0E0,0E0,0E0,0E0,0E0,0E0,0E0,0E0,0E0,0E0,0E0,0E0,0E0,0E0,0E0,0E0,0E0,0E0,0E0,0E0,0E0,0E0,0E0,0E0,0E0,0E0,0E0,0E0],"parents":[2147483647,0,0,1,1,2,2,3,3,4,4,5,5,6,6,7,7,8,8,9,9,10,10,11,11,14,14,15,15,16,16,17,17,18,18,20,20,21,21,22,22,24,24,27,27,28,28,29,29,30,30,31,31,32,32,33,33,34,34,35,35,36,36,37,37,38,38,39,39,40,40,41,41],"right_children":[2,4,6,8,10,12,14,16,18,20,22,24,-1,-1,26,28,30,32,34,-1,36,38,40,-1,42,-1,-1,44,46,48,50,52,54,56,58,60,62,64,66,68,70,72,-1,-1,-1,-1,-1,-1,-1,-1,-1,-1,-1,-1,-1,-1,-1,-1,-1,-1,-1,-1,-1,-1,-1,-1,-1,-1,-1,-1,-1,-1,-1],"split_conditions":[1.4957224E3,8E0,1.23E2,2.8E1,2.4E1,3.4E2,2.244827E3,2.51E2,1.23E2,2.4E1,9.77E7,2.27E2,-9.214794E-2,-1.0517227E-1,1.1805437E8,2.29E2,3.1088E4,1.4011E4,8E1,-1.0565902E-1,2E0,3.7851315E6,7E0,-8.4607616E-2,1.3E1,-3.0350482E-2,1.1173322E-1,2.11E2,1.23E2,6E0,1.23E2,1.61E2,2.35E2,6.6E7,1E0,3.4083192E0,8.72E2,6E0,6E0,6.3E7,1.087358E3,2.43E2,-2.867773E-2,-1.067824E-1,9.446373E-2,-1.6073607E-1,-1.0814705E-1,4.578465E-2,1.1522212E-1,-2.280675E-1,-1.2140147E-1,1.1220329E-1,-9.765568E-2,1.3077907E-1,-1.0683048E-1,-1.06224574E-1,1.7825572E-1,-1.0639286E-1,2.8099317E-2,1.1916647E-1,-1.0770845E-1,1.2168453E-1,1.738461E-2,1.8132885E-1,-1.01032846E-1,1.2271744E-1,-1.0055357E-1,1.3295485E-1,3.9302406E-1,-1.0676886E-1,2.2273849E-1,1.2156602E-1,3.2534875E-2],"split_indices":[13,52,0,35,0,67,41,66,0,69,76,67,0,0,1,66,66,24,34,0,19,71,10,0,3,0,0,66,0,39,0,19,66,26,46,37,34,40,3,21,13,67,0,0,0,0,0,0,0,0,0,0,0,0,0,0,0,0,0,0,0,0,0,0,0,0,0,0,0,0,0,0,0],"split_type":[0,0,0,0,0,0,0,0,0,0,0,0,0,0,0,0,0,0,0,0,0,0,0,0,0,0,0,0,0,0,0,0,0,0,0,0,0,0,0,0,0,0,0,0,0,0,0,0,0,0,0,0,0,0,0,0,0,0,0,0,0,0,0,0,0,0,0,0,0,0,0,0,0],"sum_hessian":[1.948358E5,1.6287345E5,3.196234E4,6.886833E4,9.4005125E4,3.1833586E4,1.2875362E2,5.2000324E4,1.6868006E4,1.9790956E3,9.202603E4,3.1827436E4,6.150793E0,1.2575189E2,3.001727E0,2.8513394E3,4.9148984E4,6.6969326E3,1.0171073E4,3.5589902E2,1.6231967E3,9.115324E4,8.727859E2,3.7318258E0,3.1823705E4,1.029813E0,1.971914E0,1.5251875E3,1.3261519E3,4.8092605E4,1.0563817E3,4.023536E3,2.6733967E3,9.356074E3,8.1499896E2,2.7030835E2,1.3528883E3,9.07613E4,3.9194168E2,2.844176E2,5.883683E2,3.182235E4,1.3541172E0,1.4443486E3,8.083888E1,1.141426E3,1.8472577E2,1.9529643E4,2.856296E4,5.872689E2,4.6911285E2,2.756516E3,1.2670198E3,2.392985E2,2.4340984E3,9.349623E3,6.4512596E0,3.0988605E2,5.0511288E2,8.193342E1,1.8837492E2,1.3518468E3,1.0415176E0,1.1449203E2,9.0646805E4,2.6906705E2,1.2287463E2,2.2646132E2,5.795629E1,5.2881305E2,5.955522E1,3.1819652E4,2.697436E0],"tree_param":{"num_deleted":"0","num_feature":"78","num_nodes":"73","size_leaf_vector":"1"}},{"base_weights":[-1.2780826E-1,-3.8280964E-1,1.1813694E0,3.5699618E-1,-9.454946E-1,1.190114E0,-9.98063E-1,6.641839E-1,-6.0077673E-1,5.775708E-1,-9.784431E-1,1.1905499E0,-9.054976E-2,-1.0449652E-1,6.4562935E-1,1.6572176E-1,1.0850532E0,-7.872934E-2,-9.8359835E-1,-1.0503439E-1,9.3028784E-1,-9.883469E-1,3.7890807E-1,-8.280591E-2,1.1908164E0,-2.9089034E-2,1.0738255E-1,6.224695E-1,-1.0682032E-1,1.1112522E0,-1.3466638E0,3.9075863E-1,-8.547025E-1,-1.0470903E0,-2.1272552E-1,-3.8215995E-1,1.1909833E0,-9.909854E-1,3.2671275E0,1.839337E0,-1.0887847E-1,1.1909013E0,-6.457269E-2,-1.2208434E-1,8.165172E-2,1.1358678E-1,-1.07034646E-1,-1.3998996E-1,1.7422551E-1,-3.4521826E-2,1.6703781E-1,1.2669288E-1,-1.0601679E-1,-1.0561599E-1,-1.499131E-2,-8.609731E-2,4.7951832E-2,1.16436675E-1,-1.0660137E-1,1.1917049E-1,1.4556171E-2,-9.975457E-2,5.1630538E-2,4.9929997E-1,-1.0178206E-1,2.4141338E-1,-1.06299095E-1,1.1909844E-1,3.333933E-2],"categories":[],"categories_nodes":[],"categories_segments":[],"categories_sizes":[],"default_left":[0,0,0,0,0,0,0,0,0,0,0,0,0,0,0,0,0,0,0,0,0,0,0,0,0,0,0,0,0,0,0,0,0,0,0,0,0,0,0,0,0,0,0,0,0,0,0,0,0,0,0,0,0,0,0,0,0,0,0,0,0,0,0,0,0,0,0,0,0],"id":15,"left_children":[1,3,5,7,9,11,13,15,17,19,21,23,-1,-1,25,27,29,31,33,-1,35,37,39,-1,41,-1,-1,43,-1,45,47,49,51,53,55,57,59,61,63,65,-1,67,-1,-1,-1,-1,-1,-1,-1,-1,-1,-1,-1,-1,-1,-1,-1,-1,-1,-1,-1,-1,-1,-1,-1,-1,-1,-1,-1],"loss_changes":[6.0387977E4,6.3023973E4,5.6320703E2,1.924382E4,4.3159453E3,2.790625E1,9.8018265E0,1.038909E4,3.174337E3,1.0468888E3,1.1319062E3,1.678125E1,0E0,0E0,1.8773863E0,1.2778827E4,1.7121387E3,2.4488857E3,4.4829297E2,0E0,5.1288477E2,9.414922E2,1.3104387E3,0E0,5.34375E0,0E0,0E0,5.920111E3,0E0,1.4278164E3,4.957733E1,3.9448843E3,1.1059172E3,6.873242E1,3.1390073E2,2.645269E2,7.6916504E-1,8.263125E2,3.8972858E2,5.136251E2,0E0,1.6992188E0,0E0,0E0,0E0,0E0,0E0,0E0,0E0,0E0,0E0,0E0,0E0,0E0,0E0,0E0,0E0,0E0,0E0,0E0,0E0,0E0,0E0,0E0,0E0,0E0,0E0,0E0,0E0],"parents":[2147483647,0,0,1,1,2,2,3,3,4,4,5,5,6,6,7,7,8,8,9,9,10,10,11,11,14,14,15,15,16,16,17,17,18,18,20,20,21,21,22,22,24,24,27,27,29,29,30,30,31,31,32,32,33,33,34,34,35,35,36,36,37,37,38,38,39,39,41,41],"right_children":[2,4,6,8,10,12,14,16,18,20,22,24,-1,-1,26,28,30,32,34,-1,36,38,40,-1,42,-1,-1,44,-1,46,48,50,52,54,56,58,60,62,64,66,-1,68,-1,-1,-1,-1,-1,-1,-1,-1,-1,-1,-1,-1,-1,-1,-1,-1,-1,-1,-1,-1,-1,-1,-1,-1,-1,-1,-1],"split_conditions":[1.4957224E3,8E0,1.23E2,2.4E1,2.4E1,3.4E2,2.244827E3,6E0,3.89E2,2.4E1,1.2296246E3,2.27E2,-9.054976E-2,-1.0449652E-1,1.1805437E8,1.23E2,1.71E3,1.4011E4,8E1,-1.0503439E-1,2E0,3.56E2,1.23E2,-8.280591E-2,3.1088E4,-2.9089034E-2,1.0738255E-1,6.4E1,-1.0682032E-1,3.4641016E0,8.104819E7,1.39E2,2.35E2,8.944272E-1,5.54E2,3.4083192E0,1.3E2,3.7851315E6,8.11E2,1.1632E4,-1.0887847E-1,2.43E2,-6.457269E-2,-1.2208434E-1,8.165172E-2,1.1358678E-1,-1.07034646E-1,-1.3998996E-1,1.7422551E-1,-3.4521826E-2,1.6703781E-1,1.2669288E-1,-1.0601679E-1,-1.0561599E-1,-1.499131E-2,-8.609731E-2,4.7951832E-2,1.16436675E-1,-1.0660137E-1,1.1917049E-1,1.4556171E-2,-9.975457E-2,5.1630538E-2,4.9929997E-1,-1.0178206E-1,2.4141338E-1,-1.06299095E-1,1.1909844E-1,3.333933E-2],"split_indices":[13,52,0,35,0,67,41,39,0,69,13,67,0,0,1,0,19,24,34,0,19,38,0,0,66,0,0,34,0,9,1,21,66,9,0,37,19,71,4,5,0,67,0,0,0,0,0,0,0,0,0,0,0,0,0,0,0,0,0,0,0,0,0,0,0,0,0,0,0],"split_type":[0,0,0,0,0,0,0,0,0,0,0,0,0,0,0,0,0,0,0,0,0,0,0,0,0,0,0,0,0,0,0,0,0,0,0,0,0,0,0,0,0,0,0,0,0,0,0,0,0,0,0,0,0,0,0,0,0,0,0,0,0,0,0,0,0,0,0,0,0],"sum_hessian":[1.8088548E5,1.513971E5,2.948839E4,6.5404742E4,8.599235E4,2.9370998E4,1.1739222E2,4.952184E4,1.5882899E4,1.8205323E3,8.417182E4,2.9365322E4,5.6755247E0,1.1448956E2,2.9026575E0,2.2671701E4,2.6850139E4,6.720065E3,9.162834E3,3.2385385E2,1.4966785E3,8.356238E4,6.0943146E2,3.467141E0,2.9361855E4,1.0113554E0,1.8913022E0,1.6547137E4,6.1245664E3,2.656448E4,2.8565817E2,4.187184E3,2.5328806E3,8.465247E3,6.9758746E2,2.479468E2,1.2487317E3,8.3511375E4,5.1012505E1,3.053447E2,3.0408673E2,2.9360852E4,1.005005E0,1.5755223E3,1.4971613E4,2.6268564E4,2.959167E2,2.8135596E2,4.302208E0,2.658735E3,1.5284491E3,2.2317851E2,2.3097021E3,8.380353E3,8.4894554E1,3.6011563E2,3.374718E2,7.580717E1,1.7213963E2,1.2477306E3,1.0010678E0,8.314981E4,3.615647E2,3.6247612E1,1.4764892E1,2.5500917E2,5.0335537E1,2.9357615E4,3.235029E0],"tree_param":{"num_deleted":"0","num_feature":"78","num_nodes":"69","size_leaf_vector":"1"}},{"base_weights":[-1.2561457E-1,-3.7507308E-1,1.1601125E0,3.4425205E-1,-9.33842E-1,1.168657E0,-9.900187E-1,6.370474E-1,-5.9385633E-1,5.6833667E-1,-9.6643543E-1,1.1692104E0,-4.7512165E-1,-1.0387589E-1,6.176509E-1,-1.2172656E0,7.4561167E-1,-5.8278892E-2,-9.712678E-1,-1.0446974E-1,9.137783E-1,-1.0289838E0,-7.298176E-1,-8.102335E-2,1.1694765E0,1.3203174E-1,-9.945371E-2,1.0146923E-1,-1.4623381E-2,-9.3931895E-1,-1.5012745E0,3.1658256E-1,1.0804477E0,4.0143153E-1,-8.4046865E-1,-1.0478317E0,-2.0852625E-1,-3.7699822E-1,1.1690111E0,-1.0363675E0,9.050493E-1,1.9153119E0,-9.7345227E-1,1.1695083E-1,1.891221E-2,-7.283737E-2,8.461276E-2,-1.0573176E-1,8.390071E-2,-1.5599833E-1,-1.0763313E-1,9.102812E-2,-7.959708E-2,1.1077726E-1,-1.0328003E-1,1.89271E-1,-1.67172E-2,1.2307022E-1,-1.053973E-1,-1.0502801E-1,1.6505621E-1,-1.0543261E-1,2.3524782E-2,1.1400278E-1,-1.0549917E-1,1.169879E-1,9.775932E-3,-1.0398847E-1,2.4424914E-1,-1.03200674E-1,1.1695454E-1,1.7107087E-1,1.7156031E0,4.0433522E-2,-9.942032E-2],"categories":[],"categories_nodes":[],"categories_segments":[],"categories_sizes":[],"default_left":[0,0,0,0,0,0,0,0,0,0,0,0,0,0,0,0,0,0,0,0,0,0,0,0,0,0,0,0,0,0,0,0,0,0,0,0,0,0,0,0,0,0,0,0,0,0,0,0,0,0,0,0,0,0,0,0,0,0,0,0,0,0,0,0,0,0,0,0,0,0,0,0,0,0,0],"id":16,"left_children":[1,3,5,7,9,11,13,15,17,19,21,23,25,-1,27,29,31,33,35,-1,37,39,41,-1,43,45,-1,-1,-1,47,49,51,53,55,57,59,61,63,65,67,69,71,73,-1,-1,-1,-1,-1,-1,-1,-1,-1,-1,-1,-1,-1,-1,-1,-1,-1,-1,-1,-1,-1,-1,-1,-1,-1,-1,-1,-1,-1,-1,-1,-1],"loss_changes":[5.3582727E4,5.623729E4,4.9988672E2,1.6802195E4,3.8560469E3,2.515625E1,9.103683E0,9.386086E3,2.9411938E3,9.3312805E2,1.1399531E3,1.51875E1,3.2262294E0,0E0,1.3023589E0,2.0216455E2,6.326508E3,2.163641E3,4.9826367E2,0E0,4.545492E2,8.714336E2,1.0388866E4,0E0,6.2109375E-1,3.938752E0,0E0,0E0,0E0,2.7494226E2,3.0101074E1,1.2753439E4,1.4295156E3,3.21392E3,9.8622485E2,5.29834E1,2.9298444E2,2.3603378E2,9.555664E-1,7.4554297E2,1.20261215E2,4.210562E3,4.2236816E2,0E0,0E0,0E0,0E0,0E0,0E0,0E0,0E0,0E0,0E0,0E0,0E0,0E0,0E0,0E0,0E0,0E0,0E0,0E0,0E0,0E0,0E0,0E0,0E0,0E0,0E0,0E0,0E0,0E0,0E0,0E0,0E0],"parents":[2147483647,0,0,1,1,2,2,3,3,4,4,5,5,6,6,7,7,8,8,9,9,10,10,11,11,12,12,14,14,15,15,16,16,17,17,18,18,20,20,21,21,22,22,24,24,25,25,29,29,30,30,31,31,32,32,33,33,34,34,35,35,36,36,37,37,38,38,39,39,40,40,41,41,42,42],"right_children":[2,4,6,8,10,12,14,16,18,20,22,24,26,-1,28,30,32,34,36,-1,38,40,42,-1,44,46,-1,-1,-1,48,50,52,54,56,58,60,62,64,66,68,70,72,74,-1,-1,-1,-1,-1,-1,-1,-1,-1,-1,-1,-1,-1,-1,-1,-1,-1,-1,-1,-1,-1,-1,-1,-1,-1,-1,-1,-1,-1,-1,-1,-1],"split_conditions":[1.4957224E3,8E0,1.23E2,2.8E1,2.4E1,2.43E2,2.244827E3,2.51E2,1.23E2,2.4E1,2.29E2,2.27E2,6.533889E2,-1.0387589E-1,6E0,2.29E2,6E0,1.4011E4,8E1,-1.0446974E-1,2E0,4.3141715E6,2.39E2,-8.102335E-2,3.04E2,7.02E2,-9.945371E-2,1.0146923E-1,-1.4623381E-2,2.11E2,1.23E2,3.04E2,3.4641016E0,1E0,2.35E2,6.6E7,1E0,3.4083192E0,2.488E3,3.56E2,1.64E7,3.8E1,6E0,1.1695083E-1,1.891221E-2,-7.283737E-2,8.461276E-2,-1.0573176E-1,8.390071E-2,-1.5599833E-1,-1.0763313E-1,9.102812E-2,-7.959708E-2,1.1077726E-1,-1.0328003E-1,1.89271E-1,-1.67172E-2,1.2307022E-1,-1.053973E-1,-1.0502801E-1,1.6505621E-1,-1.0543261E-1,2.3524782E-2,1.1400278E-1,-1.0549917E-1,1.169879E-1,9.775932E-3,-1.0398847E-1,2.4424914E-1,-1.03200674E-1,1.1695454E-1,1.7107087E-1,1.7156031E0,4.0433522E-2,-9.942032E-2],"split_indices":[13,52,0,35,0,67,41,66,0,69,67,67,52,0,8,66,39,24,34,0,19,71,67,0,35,4,0,0,0,66,0,66,9,51,66,26,46,37,4,38,26,7,5,0,0,0,0,0,0,0,0,0,0,0,0,0,0,0,0,0,0,0,0,0,0,0,0,0,0,0,0,0,0,0,0],"split_type":[0,0,0,0,0,0,0,0,0,0,0,0,0,0,0,0,0,0,0,0,0,0,0,0,0,0,0,0,0,0,0,0,0,0,0,0,0,0,0,0,0,0,0,0,0,0,0,0,0,0,0,0,0,0,0,0,0,0,0,0,0,0,0,0,0,0,0,0,0,0,0,0,0,0,0],"sum_hessian":[1.6705967E5,1.3991406E5,2.714561E4,6.1169086E4,7.874498E4,2.7038615E4,1.0699242E2,4.6619027E4,1.455006E4,1.6719329E3,7.707305E4,2.7029803E4,8.813771E0,1.041876E2,2.8048131E0,2.5778748E3,4.4041152E4,6.015183E3,8.534877E3,2.9454337E2,1.3773895E3,6.09563E4,1.6116743E4,3.22365E0,2.7026578E4,4.4075365E0,4.406235E0,1.6295148E0,1.1752983E0,1.3050188E3,1.272856E3,1.9306045E4,2.4735105E4,3.7888674E3,2.2263154E3,7.755962E3,7.78915E2,2.2731636E2,1.1500731E3,6.072493E4,2.3137178E2,1.3586868E3,1.4758057E4,2.702551E4,1.0686104E0,1.9899162E0,2.4176202E0,1.2241943E3,8.082451E1,1.1160013E3,1.5685458E2,1.2588532E4,6.717513E3,2.4419826E4,3.1528006E2,1.0452246E3,2.7436428E3,2.076054E2,2.0187101E3,7.749541E3,6.4211016E0,2.6757034E2,5.1134464E2,7.0002556E1,1.5731381E2,1.1490502E3,1.0230222E0,6.06643E4,6.062939E1,2.7448551E1,2.0392323E2,1.3417858E3,1.6900923E1,2.1869914E2,1.4539357E4],"tree_param":{"num_deleted":"0","num_feature":"78","num_nodes":"75","size_leaf_vector":"1"}},{"base_weights":[-1.2358229E-1,-3.6721048E-1,1.1415522E0,3.3064842E-1,-9.2404497E-1,1.1499258E0,-9.820119E-1,6.110128E-1,-5.760681E-1,5.601556E-1,-9.563278E-1,1.1504848E0,-4.6128494E-1,-1.0330247E-1,5.912977E-1,1.4534357E-1,1.0264138E0,-5.561594E-2,-9.5993966E-1,-1.0395761E-1,8.992101E-1,-1.0226531E0,-7.1133345E-1,-7.925719E-2,1.1507514E0,1.2407339E-1,-9.758737E-2,9.78452E-2,-1.3881532E-2,5.520285E-1,-1.0573629E-1,1.0596832E0,-9.890333E-1,3.6763978E-1,-8.340645E-1,-1.042603E0,-1.9391674E-1,-3.720013E-1,1.1498398E0,-1.030027E0,8.900912E-1,1.5236783E0,-9.6169245E-1,1.150787E-1,1.8552927E-2,-7.093452E-2,7.95541E-2,1.1271464E-3,1.1967706E-1,1.0834103E-1,-1.5906987E-1,-1.0193931E-1,1.5196174E-1,9.4054505E-2,-9.565925E-2,1.1982244E-1,-1.0478141E-1,-1.0451267E-1,1.5306084E-1,-3.4161683E-2,2.1856187E-1,1.132754E-1,-1.0375533E-1,1.1507771E-1,8.614442E-3,-1.03374235E-1,1.9460405E-1,-1.02225415E-1,1.149803E-1,3.8471705E-1,4.4896714E-2,3.5292916E-2,-9.840087E-2],"categories":[],"categories_nodes":[],"categories_segments":[],"categories_sizes":[],"default_left":[0,0,0,0,0,0,0,0,0,0,0,0,0,0,0,0,0,0,0,0,0,0,0,0,0,0,0,0,0,0,0,0,0,0,0,0,0,0,0,0,0,0,0,0,0,0,0,0,0,0,0,0,0,0,0,0,0,0,0,0,0,0,0,0,0,0,0,0,0,0,0,0,0],"id":17,"left_children":[1,3,5,7,9,11,13,15,17,19,21,23,25,-1,27,29,31,33,35,-1,37,39,41,-1,43,45,-1,-1,-1,47,-1,49,51,53,55,57,59,61,63,65,67,69,71,-1,-1,-1,-1,-1,-1,-1,-1,-1,-1,-1,-1,-1,-1,-1,-1,-1,-1,-1,-1,-1,-1,-1,-1,-1,-1,-1,-1,-1,-1],"loss_changes":[4.760886E4,5.0330867E4,4.4464648E2,1.4612919E4,3.4522422E3,2.290625E1,8.516678E0,8.493088E3,2.712372E3,8.330797E2,1.1449453E3,1.3777344E1,2.931218E0,0E0,1.1900451E0,1.0126334E4,1.5570449E3,1.8994857E3,4.9456396E2,0E0,4.0391858E2,7.8347266E2,8.408397E3,0E0,6.4453125E-1,3.503234E0,0E0,0E0,0E0,5.3940264E3,0E0,1.4373594E3,3.028949E1,2.8342034E3,8.833081E2,4.739502E1,2.686536E2,2.1081079E2,9.5581055E-1,6.13125E2,1.07266205E2,3.7784348E3,3.967373E2,0E0,0E0,0E0,0E0,0E0,0E0,0E0,0E0,0E0,0E0,0E0,0E0,0E0,0E0,0E0,0E0,0E0,0E0,0E0,0E0,0E0,0E0,0E0,0E0,0E0,0E0,0E0,0E0,0E0,0E0],"parents":[2147483647,0,0,1,1,2,2,3,3,4,4,5,5,6,6,7,7,8,8,9,9,10,10,11,11,12,12,14,14,15,15,16,16,17,17,18,18,20,20,21,21,22,22,24,24,25,25,29,29,31,31,32,32,33,33,34,34,35,35,36,36,37,37,38,38,39,39,40,40,41,41,42,42],"right_children":[2,4,6,8,10,12,14,16,18,20,22,24,26,-1,28,30,32,34,36,-1,38,40,42,-1,44,46,-1,-1,-1,48,-1,50,52,54,56,58,60,62,64,66,68,70,72,-1,-1,-1,-1,-1,-1,-1,-1,-1,-1,-1,-1,-1,-1,-1,-1,-1,-1,-1,-1,-1,-1,-1,-1,-1,-1,-1,-1,-1,-1],"split_conditions":[1.4957224E3,8E0,1.23E2,2.8E1,2.4E1,2.43E2,2.244827E3,6E0,1.23E2,2.4E1,2.29E2,2.27E2,6.533889E2,-1.0330247E-1,6E0,1.23E2,3.4641016E0,1.4011E4,8E1,-1.0395761E-1,2E0,4.3141715E6,2.39E2,-7.925719E-2,2E1,7.02E2,-9.758737E-2,9.78452E-2,-1.3881532E-2,2E5,-1.0573629E-1,5.445E3,8.104819E7,1.61E2,2.35E2,6.6E7,1.18E7,3.0317638E0,2.937E3,3.56E2,1.64E7,3.07E2,6E0,1.150787E-1,1.8552927E-2,-7.093452E-2,7.95541E-2,1.1271464E-3,1.1967706E-1,1.0834103E-1,-1.5906987E-1,-1.0193931E-1,1.5196174E-1,9.4054505E-2,-9.565925E-2,1.1982244E-1,-1.0478141E-1,-1.0451267E-1,1.5306084E-1,-3.4161683E-2,2.1856187E-1,1.132754E-1,-1.0375533E-1,1.1507771E-1,8.614442E-3,-1.03374235E-1,1.9460405E-1,-1.02225415E-1,1.149803E-1,3.8471705E-1,4.4896714E-2,3.5292916E-2,-9.840087E-2],"split_indices":[13,52,0,35,0,67,41,39,0,69,67,67,52,0,8,0,9,24,34,0,19,71,67,0,2,4,0,0,0,36,0,19,1,19,66,26,24,37,5,38,26,4,5,0,0,0,0,0,0,0,0,0,0,0,0,0,0,0,0,0,0,0,0,0,0,0,0,0,0,0,0,0,0],"split_type":[0,0,0,0,0,0,0,0,0,0,0,0,0,0,0,0,0,0,0,0,0,0,0,0,0,0,0,0,0,0,0,0,0,0,0,0,0,0,0,0,0,0,0,0,0,0,0,0,0,0,0,0,0,0,0,0,0,0,0,0,0,0,0,0,0,0,0,0,0,0,0,0,0],"sum_hessian":[1.5446031E5,1.2951936E5,2.494096E4,5.748103E4,7.203833E4,2.4843457E4,9.7504425E1,4.390543E4,1.3575604E4,1.533201E3,7.0505125E4,2.4835127E4,8.329225E0,9.4774864E1,2.7295592E0,2.0700867E4,2.320456E4,5.763122E3,7.8124814E3,2.677646E2,1.2654365E3,5.5481816E4,1.5023308E4,2.999782E0,2.4832127E4,4.251696E0,4.077529E0,1.5614417E0,1.1681176E0,1.547027E4,5.2305977E3,2.2828205E4,3.7635645E2,3.733618E3,2.0295039E3,7.0512075E3,7.612738E2,2.08323E2,1.0571135E3,5.5269207E4,2.1260918E2,1.5128315E3,1.3510477E4,2.4831018E4,1.1086713E0,1.8719016E0,2.3797946E0,8.414169E3,7.0561006E3,2.2626238E4,2.0196606E2,3.7244275E2,3.9136808E0,2.6063271E3,1.1272909E3,1.9270422E2,1.8367997E3,7.044892E3,6.3152313E0,7.175888E2,4.368501E1,6.36696E1,1.446534E2,1.056101E3,1.0125905E0,5.520095E4,6.8259445E1,2.507051E1,1.8753868E2,4.776302E2,1.0352014E3,2.252699E2,1.3285206E4],"tree_param":{"num_deleted":"0","num_feature":"78","num_nodes":"73","size_leaf_vector":"1"}},{"base_weights":[-1.2159659E-1,-3.5982776E-1,1.1252795E0,3.1835842E-1,-9.146024E-1,1.133507E0,-9.7424084E-1,5.8768207E-1,-5.6055385E-1,5.528097E-1,-9.465816E-1,1.1340739E0,-4.480076E-1,-1.0277464E-1,5.7285696E-1,-1.183031E0,6.941141E-1,-5.461569E-2,-9.484832E-1,-1.0349144E-1,8.8615984E-1,-1.0167218E0,-6.931736E-1,-7.750579E-2,1.1343421E0,1.16089694E-1,-9.570021E-2,-1.9321596E-2,9.713064E-2,-9.207648E-1,-1.4305464E0,7.5307894E-1,-1.7971231E0,3.389247E-1,-8.2818997E-1,-1.037894E0,-1.7860597E-1,-3.6676675E-1,1.1329937E0,-1.0243443E0,8.138406E-1,1.2855875E0,-9.498135E-1,1.1343801E-1,1.5699374E-2,-6.907739E-2,7.482561E-2,-1.0518265E-1,7.9928465E-2,-1.4741878E-1,-1.07408814E-1,3.8595885E-2,1.0489633E-1,-2.1008168E-1,-1.2742512E-1,-2.7579544E-2,1.508865E-1,1.1687956E-1,-1.0422154E-1,-1.0404902E-1,1.4331274E-1,-1.04645185E-1,2.2557555E-2,1.098626E-1,-1.03284575E-1,1.13400914E-1,7.5686327E-3,-1.02826275E-1,1.613254E-1,-1.0251391E-1,1.14087716E-1,3.010521E-1,3.8385417E-2,3.0924803E-2,-9.7381264E-2],"categories":[],"categories_nodes":[],"categories_segments":[],"categories_sizes":[],"default_left":[0,0,0,0,0,0,0,0,0,0,0,0,0,0,0,0,0,0,0,0,0,0,0,0,0,0,0,0,0,0,0,0,0,0,0,0,0,0,0,0,0,0,0,0,0,0,0,0,0,0,0,0,0,0,0,0,0,0,0,0,0,0,0,0,0,0,0,0,0,0,0,0,0,0,0],"id":18,"left_children":[1,3,5,7,9,11,13,15,17,19,21,23,25,-1,27,29,31,33,35,-1,37,39,41,-1,43,45,-1,-1,-1,47,49,51,53,55,57,59,61,63,65,67,69,71,73,-1,-1,-1,-1,-1,-1,-1,-1,-1,-1,-1,-1,-1,-1,-1,-1,-1,-1,-1,-1,-1,-1,-1,-1,-1,-1,-1,-1,-1,-1,-1,-1],"loss_changes":[4.2363996E4,4.5051305E4,3.9628906E2,1.2753915E4,3.09125E3,2.09375E1,8.025543E0,7.773173E3,2.4803574E3,7.447299E2,1.1449883E3,1.2542969E1,2.661387E0,0E0,1.3003677E0,1.5049951E2,5.7161113E3,1.6703258E3,4.921997E2,0E0,3.5979297E2,7.052422E2,7.099018E3,0E0,6.699219E-1,3.1207347E0,0E0,0E0,0E0,2.574555E2,1.7105469E1,4.1278633E3,1.402063E2,2.6158948E3,7.9193494E2,4.2603516E1,2.617338E2,1.8854576E2,9.5666504E-1,5.212422E2,1.274041E2,2.4953948E3,3.7416016E2,0E0,0E0,0E0,0E0,0E0,0E0,0E0,0E0,0E0,0E0,0E0,0E0,0E0,0E0,0E0,0E0,0E0,0E0,0E0,0E0,0E0,0E0,0E0,0E0,0E0,0E0,0E0,0E0,0E0,0E0,0E0,0E0],"parents":[2147483647,0,0,1,1,2,2,3,3,4,4,5,5,6,6,7,7,8,8,9,9,10,10,11,11,12,12,14,14,15,15,16,16,17,17,18,18,20,20,21,21,22,22,24,24,25,25,29,29,30,30,31,31,32,32,33,33,34,34,35,35,36,36,37,37,38,38,39,39,40,40,41,41,42,42],"right_children":[2,4,6,8,10,12,14,16,18,20,22,24,26,-1,28,30,32,34,36,-1,38,40,42,-1,44,46,-1,-1,-1,48,50,52,54,56,58,60,62,64,66,68,70,72,74,-1,-1,-1,-1,-1,-1,-1,-1,-1,-1,-1,-1,-1,-1,-1,-1,-1,-1,-1,-1,-1,-1,-1,-1,-1,-1,-1,-1,-1,-1,-1,-1],"split_conditions":[1.4957224E3,8E0,1.23E2,2.8E1,2.4E1,2.43E2,1.1595E4,2.51E2,1.23E2,2.4E1,2.29E2,2.27E2,6.533889E2,-1.0277464E-1,2.3826155E3,2.29E2,3.1088E4,1.4011E4,8E1,-1.0349144E-1,2E0,3.7851315E6,2.39E2,-7.750579E-2,3.04E2,7.02E2,-9.570021E-2,-1.9321596E-2,9.713064E-2,2.11E2,1.23E2,6E0,1.23E2,1.07E2,2.35E2,6.6E7,1E0,3.4083192E0,2.488E3,3.56E2,3.66E7,3.15E2,6E0,1.1343801E-1,1.5699374E-2,-6.907739E-2,7.482561E-2,-1.0518265E-1,7.9928465E-2,-1.4741878E-1,-1.07408814E-1,3.8595885E-2,1.0489633E-1,-2.1008168E-1,-1.2742512E-1,-2.7579544E-2,1.508865E-1,1.1687956E-1,-1.0422154E-1,-1.0404902E-1,1.4331274E-1,-1.04645185E-1,2.2557555E-2,1.098626E-1,-1.03284575E-1,1.13400914E-1,7.5686327E-3,-1.02826275E-1,1.613254E-1,-1.0251391E-1,1.14087716E-1,3.010521E-1,3.8385417E-2,3.0924803E-2,-9.7381264E-2],"split_indices":[13,52,0,35,0,67,10,66,0,69,67,67,52,0,41,66,66,24,34,0,19,71,67,0,35,4,0,0,0,66,0,39,0,21,66,26,46,37,4,38,26,4,5,0,0,0,0,0,0,0,0,0,0,0,0,0,0,0,0,0,0,0,0,0,0,0,0,0,0,0,0,0,0,0,0],"split_type":[0,0,0,0,0,0,0,0,0,0,0,0,0,0,0,0,0,0,0,0,0,0,0,0,0,0,0,0,0,0,0,0,0,0,0,0,0,0,0,0,0,0,0,0,0,0,0,0,0,0,0,0,0,0,0,0,0,0,0,0,0,0,0,0,0,0,0,0,0,0,0,0,0,0,0],"sum_hessian":[1.4261584E5,1.19738945E5,2.28769E4,5.387711E4,6.5861836E4,2.278806E4,8.883976E1,4.1240258E4,1.2636853E4,1.4043616E3,6.4457473E4,2.2780178E4,7.882235E0,8.6194466E1,2.645299E0,2.337703E3,3.8902555E4,5.4847603E3,7.1520923E3,2.4332353E2,1.1610381E3,5.0481727E4,1.3975744E4,2.7940373E0,2.2777385E4,4.1048856E0,3.7773497E0,1.0813457E0,1.5639533E0,1.1373221E3,1.2003809E3,3.8003746E4,8.9880975E2,3.635722E3,1.8490386E3,6.4075903E3,7.445022E2,1.9100624E2,9.700318E2,5.0272832E4,2.0889645E2,1.6040544E3,1.237169E4,2.2776338E4,1.0459356E0,1.7625506E0,2.342335E0,1.0571588E3,8.016323E1,1.0666542E3,1.3372673E2,1.6961266E4,2.104248E4,5.6666327E2,3.3214645E2,2.383911E3,1.2518109E3,1.785547E2,1.6704839E3,6.4014434E3,6.1467566E0,2.3605763E2,5.0844458E2,5.948599E1,1.3152025E2,9.690286E2,1.0031953E0,5.0198867E4,7.396385E1,3.1217987E1,1.7767847E2,5.498682E2,1.0541862E3,2.3118558E2,1.2140505E4],"tree_param":{"num_deleted":"0","num_feature":"78","num_nodes":"75","size_leaf_vector":"1"}},{"base_weights":[-1.1904191E-1,-3.5040024E-1,1.110961E0,3.0235153E-1,-9.0514445E-1,1.119063E0,-9.6671975E-1,5.579568E-1,-5.3671604E-1,5.462517E-1,-9.367948E-1,1.1196404E0,-4.3525112E-1,-1.02276646E-1,5.660728E-1,1.2591591E-1,9.853074E-1,-6.7901485E-2,-9.385297E-1,-1.03065394E-1,8.745629E-1,-1.0111579E0,-6.744212E-1,-7.576845E-2,1.1199111E0,1.08099855E-1,-9.3790196E-2,9.18403E-2,-1.20629845E-2,5.0955826E-1,-1.0529115E-1,1.0155643E0,-1.3237126E0,2.9080653E-1,-8.318752E-1,-1.0242956E0,-1.6121756E-1,-3.6195955E-1,1.118127E0,-1.0187689E0,8.026257E-1,1.0971267E0,-9.377185E-1,1.1199536E-1,1.5383191E-2,-6.726502E-2,7.0390713E-1,-1.2160052E-1,7.0347376E-2,1.0312396E-1,-2.4919534E-1,-1.4134191E-1,7.271137E-2,-2.9245306E-2,1.4307976E-1,1.1418524E-1,-1.0366756E-1,-1.0366835E-1,-4.9782376E-4,-8.072285E-2,4.078152E-2,1.0969359E-1,-1.0141454E-1,1.1192266E-1,7.1905307E-3,-1.0228962E-1,1.3703775E-1,-1.01682626E-1,1.1247957E-1,1.9550353E-1,-2.8726289E-2,2.7186826E-2,-9.635215E-2,8.482309E-2,2.2470098E-2],"categories":[],"categories_nodes":[],"categories_segments":[],"categories_sizes":[],"default_left":[0,0,0,0,0,0,0,0,0,0,0,0,0,0,0,0,0,0,0,0,0,0,0,0,0,0,0,0,0,0,0,0,0,0,0,0,0,0,0,0,0,0,0,0,0,0,0,0,0,0,0,0,0,0,0,0,0,0,0,0,0,0,0,0,0,0,0,0,0,0,0,0,0,0,0],"id":19,"left_children":[1,3,5,7,9,11,13,15,17,19,21,23,25,-1,27,29,31,33,35,-1,37,39,41,-1,43,45,-1,-1,-1,47,-1,49,51,53,55,57,59,61,63,65,67,69,71,-1,-1,-1,73,-1,-1,-1,-1,-1,-1,-1,-1,-1,-1,-1,-1,-1,-1,-1,-1,-1,-1,-1,-1,-1,-1,-1,-1,-1,-1,-1,-1],"loss_changes":[3.7663938E4,4.0339016E4,3.538086E2,1.0976745E4,2.7668867E3,1.921875E1,7.6174088E0,7.2429336E3,2.2511914E3,6.6659546E2,1.149207E3,1.1457031E1,2.4147975E0,0E0,9.657819E-1,8.823379E3,1.3791777E3,1.5120453E3,4.2884912E2,0E0,3.2109113E2,6.3471094E2,6.0732305E3,0E0,6.8359375E-1,2.7840521E0,0E0,0E0,0E0,4.926168E3,0E0,1.0729062E3,4.8036407E1,2.497005E3,7.1377747E2,7.317627E1,2.358389E2,1.6855089E2,9.432373E-1,4.5229688E2,1.139459E2,2.0017139E3,3.5401074E2,0E0,0E0,0E0,3.80373E-2,0E0,0E0,0E0,0E0,0E0,0E0,0E0,0E0,0E0,0E0,0E0,0E0,0E0,0E0,0E0,0E0,0E0,0E0,0E0,0E0,0E0,0E0,0E0,0E0,0E0,0E0,0E0,0E0],"parents":[2147483647,0,0,1,1,2,2,3,3,4,4,5,5,6,6,7,7,8,8,9,9,10,10,11,11,12,12,14,14,15,15,16,16,17,17,18,18,20,20,21,21,22,22,24,24,25,25,29,29,31,31,32,32,33,33,34,34,35,35,36,36,37,37,38,38,39,39,40,40,41,41,42,42,46,46],"right_children":[2,4,6,8,10,12,14,16,18,20,22,24,26,-1,28,30,32,34,36,-1,38,40,42,-1,44,46,-1,-1,-1,48,-1,50,52,54,56,58,60,62,64,66,68,70,72,-1,-1,-1,74,-1,-1,-1,-1,-1,-1,-1,-1,-1,-1,-1,-1,-1,-1,-1,-1,-1,-1,-1,-1,-1,-1,-1,-1,-1,-1,-1,-1],"split_conditions":[1.4957224E3,8E0,1.23E2,2.4E1,2.4E1,2.43E2,2.244827E3,6E0,3.89E2,2.4E1,2.29E2,2.27E2,6.533889E2,-1.02276646E-1,6E0,1.23E2,1.71E3,1.4011E4,8E1,-1.03065394E-1,2E0,3.7851315E6,2.39E2,-7.576845E-2,2E1,7.02E2,-9.3790196E-2,9.18403E-2,-1.20629845E-2,6.4E1,-1.0529115E-1,8E0,3.3737938E6,1.6E2,2.35E2,8.944272E-1,5.54E2,3.0317638E0,2.488E3,3.56E2,3.66E7,2.0430508E2,6E0,1.1199536E-1,1.5383191E-2,-6.726502E-2,6.205391E6,-1.2160052E-1,7.0347376E-2,1.0312396E-1,-2.4919534E-1,-1.4134191E-1,7.271137E-2,-2.9245306E-2,1.4307976E-1,1.1418524E-1,-1.0366756E-1,-1.0366835E-1,-4.9782376E-4,-8.072285E-2,4.078152E-2,1.0969359E-1,-1.0141454E-1,1.1192266E-1,7.1905307E-3,-1.0228962E-1,1.3703775E-1,-1.01682626E-1,1.1247957E-1,1.9550353E-1,-2.8726289E-2,2.7186826E-2,-9.635215E-2,8.482309E-2,2.2470098E-2],"split_indices":[13,52,0,35,0,67,41,39,0,69,67,67,52,0,8,0,19,24,34,0,19,71,67,0,2,4,0,0,0,34,0,67,17,21,66,9,0,37,4,38,26,9,5,0,0,0,1,0,0,0,0,0,0,0,0,0,0,0,0,0,0,0,0,0,0,0,0,0,0,0,0,0,0,0,0],"split_type":[0,0,0,0,0,0,0,0,0,0,0,0,0,0,0,0,0,0,0,0,0,0,0,0,0,0,0,0,0,0,0,0,0,0,0,0,0,0,0,0,0,0,0,0,0,0,0,0,0,0,0,0,0,0,0,0,0,0,0,0,0,0,0,0,0,0,0,0,0,0,0,0,0,0,0],"sum_hessian":[1.3235084E5,1.1139806E5,2.095279E4,5.1178375E4,6.0219688E4,2.087186E4,8.09301E1,3.922852E4,1.19498545E4,1.2848291E3,5.893486E4,2.0864389E4,7.4704366E0,7.839627E1,2.5338256E0,1.9507855E4,1.9720666E4,5.515655E3,6.4342E3,2.2103598E2,1.0637932E3,4.591778E4,1.3017076E4,2.6049922E0,2.0861783E4,3.9670796E0,3.503357E0,1.4516237E0,1.082202E0,1.4718406E4,4.7894497E3,1.9466145E4,2.5452026E2,3.7537695E3,1.7618853E3,5.794534E3,6.396659E2,1.7497852E2,8.8881464E2,4.5726344E4,1.9143846E2,1.6839255E3,1.133315E4,2.0860705E4,1.0777435E0,1.6612256E0,2.305854E0,1.4863956E3,1.3232011E4,1.9380238E4,8.590581E1,2.4415149E2,1.0368781E1,2.4837427E3,1.2700269E3,1.6520227E2,1.596683E3,5.7249414E3,6.9592834E1,2.993741E2,3.4029178E2,5.3846226E1,1.2113229E2,8.878117E2,1.0029511E0,4.564806E4,7.8284134E1,2.8474247E1,1.6296422E2,1.0393971E3,6.445284E2,2.3651054E2,1.1096641E4,1.180304E0,1.12555E0],"tree_param":{"num_deleted":"0","num_feature":"78","num_nodes":"75","size_leaf_vector":"1"}},{"base_weights":[-1.1719729E-1,-3.4334272E-1,1.0983227E0,2.9100302E-1,-8.956044E-1,1.1063173E0,-9.5923805E-1,5.3678E-1,-5.20841E-1,5.402833E-1,-9.269036E-1,1.1069056E0,-4.1854003E-1,-1.0181057E-1,5.5108476E-1,8.040531E-1,-1.5869072E-1,-6.462107E-2,-9.2695415E-1,-1.02674305E-1,8.6402386E-1,-1.0058607E0,-6.5527505E-1,-7.4045196E-2,1.1071798E0,1.0788529E-1,-9.185741E-2,8.652461E-3,7.0717596E-2,8.6904913E-1,-1.1554797E0,-4.823619E-1,1.1149175E0,2.709589E-1,-8.266524E-1,-1.0193024E0,-1.4976993E-1,-3.5678884E-1,1.1049541E0,-1.0134585E0,7.925073E-1,9.4358546E-1,-9.253169E-1,1.1072256E-1,1.28914295E-2,-6.54968E-2,6.7419654E-1,9.0348795E-2,-1.7882137E-1,-1.0833347E-1,-2.4499653E-1,-5.8615696E-2,1.348453E-1,1.1990755E-1,-1.5789747E-1,-1.0331211E-1,7.4852444E-2,1.11693405E-1,-1.0317303E-1,-1.0328802E-1,-4.4891876E-4,-7.980297E-2,3.528878E-2,1.063797E-1,-1.0100695E-1,1.1062106E-1,7.889491E-3,-1.0198229E-1,5.0638318E-2,-1.0087849E-1,1.1104881E-1,1.4544174E-1,-1.0989834E-1,2.3968594E-2,-9.530465E-2,8.1926376E-2,2.0860502E-2],"categories":[],"categories_nodes":[],"categories_segments":[],"categories_sizes":[],"default_left":[0,0,0,0,0,0,0,0,0,0,0,0,0,0,0,0,0,0,0,0,0,0,0,0,0,0,0,0,0,0,0,0,0,0,0,0,0,0,0,0,0,0,0,0,0,0,0,0,0,0,0,0,0,0,0,0,0,0,0,0,0,0,0,0,0,0,0,0,0,0,0,0,0,0,0,0,0],"id":20,"left_children":[1,3,5,7,9,11,13,15,17,19,21,23,25,-1,27,29,31,33,35,-1,37,39,41,-1,43,45,-1,-1,-1,47,49,51,53,55,57,59,61,63,65,67,69,71,73,-1,-1,-1,75,-1,-1,-1,-1,-1,-1,-1,-1,-1,-1,-1,-1,-1,-1,-1,-1,-1,-1,-1,-1,-1,-1,-1,-1,-1,-1,-1,-1,-1,-1],"loss_changes":[3.35872E4,3.609058E4,3.1633984E2,9.567332E3,2.4756172E3,1.7589844E1,7.204277E0,6.8415586E3,2.0644478E3,5.9723047E2,1.1553086E3,1.0486328E1,2.228234E0,0E0,1.8911994E-1,3.3872852E3,4.2129683E3,1.3424485E3,4.229463E2,0E0,2.871046E2,5.713633E2,5.2431504E3,0E0,7.109375E-1,2.530422E0,0E0,0E0,0E0,2.3566855E3,7.710278E1,1.5492726E3,4.7141382E2,2.270677E3,6.4087695E2,7.259424E1,2.046745E2,1.5088051E2,9.625244E-1,4.0273828E2,1.0206521E2,1.8326481E3,3.3580762E2,0E0,0E0,0E0,4.981327E-2,0E0,0E0,0E0,0E0,0E0,0E0,0E0,0E0,0E0,0E0,0E0,0E0,0E0,0E0,0E0,0E0,0E0,0E0,0E0,0E0,0E0,0E0,0E0,0E0,0E0,0E0,0E0,0E0,0E0,0E0],"parents":[2147483647,0,0,1,1,2,2,3,3,4,4,5,5,6,6,7,7,8,8,9,9,10,10,11,11,12,12,14,14,15,15,16,16,17,17,18,18,20,20,21,21,22,22,24,24,25,25,29,29,30,30,31,31,32,32,33,33,34,34,35,35,36,36,37,37,38,38,39,39,40,40,41,41,42,42,46,46],"right_children":[2,4,6,8,10,12,14,16,18,20,22,24,26,-1,28,30,32,34,36,-1,38,40,42,-1,44,46,-1,-1,-1,48,50,52,54,56,58,60,62,64,66,68,70,72,74,-1,-1,-1,76,-1,-1,-1,-1,-1,-1,-1,-1,-1,-1,-1,-1,-1,-1,-1,-1,-1,-1,-1,-1,-1,-1,-1,-1,-1,-1,-1,-1,-1,-1],"split_conditions":[1.4957224E3,8E0,1.23E2,2.4E1,2.4E1,2.43E2,1.1595E4,1.8E1,3.89E2,2.4E1,2.29E2,2.27E2,6.533889E2,-1.0181057E-1,1.545E3,8E0,4E0,1.4011E4,8E1,-1.02674305E-1,2E0,3.7851315E6,2.39E2,-7.4045196E-2,3.04E2,7.02E2,-9.185741E-2,8.652461E-3,7.0717596E-2,3.1088E4,6E0,6.144437E6,1.23E2,2.35E2,2.35E2,8.944272E-1,6E0,3.4083192E0,1.499834E7,1.87E2,3.66E7,8.181E3,6E0,1.1072256E-1,1.28914295E-2,-6.54968E-2,2.88105E5,9.0348795E-2,-1.7882137E-1,-1.0833347E-1,-2.4499653E-1,-5.8615696E-2,1.348453E-1,1.1990755E-1,-1.5789747E-1,-1.0331211E-1,7.4852444E-2,1.11693405E-1,-1.0317303E-1,-1.0328802E-1,-4.4891876E-4,-7.980297E-2,3.528878E-2,1.063797E-1,-1.0100695E-1,1.1062106E-1,7.889491E-3,-1.0198229E-1,5.0638318E-2,-1.0087849E-1,1.1104881E-1,1.4544174E-1,-1.0989834E-1,2.3968594E-2,-9.530465E-2,8.1926376E-2,2.0860502E-2],"split_indices":[13,52,0,35,0,67,10,24,0,69,67,67,52,0,6,67,2,24,34,0,19,71,67,0,35,4,0,0,0,66,5,77,0,67,66,9,11,37,1,38,26,0,5,0,0,0,21,0,0,0,0,0,0,0,0,0,0,0,0,0,0,0,0,0,0,0,0,0,0,0,0,0,0,0,0,0,0],"split_type":[0,0,0,0,0,0,0,0,0,0,0,0,0,0,0,0,0,0,0,0,0,0,0,0,0,0,0,0,0,0,0,0,0,0,0,0,0,0,0,0,0,0,0,0,0,0,0,0,0,0,0,0,0,0,0,0,0,0,0,0,0,0,0,0,0,0,0,0,0,0,0,0,0,0,0,0,0],"sum_hessian":[1.221843E5,1.0301858E5,1.9165715E4,4.7946332E4,5.507225E4,1.9091996E4,7.371919E1,3.6804504E4,1.1141825E4,1.1745007E3,5.389775E4,1.9084908E4,7.088472E0,7.126732E1,2.4518704E0,2.6586871E4,1.0217635E4,5.247755E3,5.8940703E3,2.0072835E2,9.7377234E2,4.175708E4,1.2140672E4,2.4313068E0,1.9082477E4,3.8351505E0,3.2533214E0,1.0075403E0,1.4443302E0,2.5733857E4,8.530135E2,8.147638E3,2.0699963E3,3.6437712E3,1.6039833E3,5.267815E3,6.262553E2,1.6042172E2,8.1335065E2,4.158184E4,1.7523799E2,1.7538718E3,1.03868E4,1.9081451E4,1.0244918E0,1.5673244E0,2.267826E0,2.540526E4,3.2859836E2,8.097224E2,4.3291073E1,7.711147E3,4.3649118E2,2.0078263E3,6.2170155E1,9.763917E2,2.6673796E3,1.5266673E2,1.4513167E3,5.1982466E3,6.956836E1,2.732574E2,3.5299792E2,5.0335876E1,1.10085846E2,8.1227783E2,1.0728056E0,4.140877E4,1.7307101E2,2.5967165E1,1.4927081E2,1.4032236E3,3.506483E2,2.4130324E2,1.0145496E4,1.1499193E0,1.1179068E0],"tree_param":{"num_deleted":"0","num_feature":"78","num_nodes":"77","size_leaf_vector":"1"}},{"base_weights":[-1.1470615E-1,-3.3412147E-1,1.0871332E0,2.7629307E-1,-8.859941E-1,1.0950366E0,-9.516108E-1,4.4735986E-1,-8.0646205E-1,5.3489804E-1,-9.169181E-1,1.0956382E0,-4.024863E-1,-1.0136533E-1,5.502076E-1,